{"learner":{"attributes":{"scikit_learn":"{\"_estimator_type\": \"classifier\"}"},"feature_names":[],"feature_types":[],"gradient_booster":{"model":{"gbtree_model_param":{"num_parallel_tree":"1","num_trees":"500"},"iteration_indptr":[0,5,10,15,20,25,30,35,40,45,50,55,60,65,70,75,80,85,90,95,100,105,110,115,120,125,130,135,140,145,150,155,160,165,170,175,180,185,190,195,200,205,210,215,220,225,230,235,240,245,250,255,260,265,270,275,280,285,290,295,300,305,310,315,320,325,330,335,340,345,350,355,360,365,370,375,380,385,390,395,400,405,410,415,420,425,430,435,440,445,450,455,460,465,470,475,480,485,490,495,500],"tree_info":[0,1,2,3,4,0,1,2,3,4,0,1,2,3,4,0,1,2,3,4,0,1,2,3,4,0,1,2,3,4,0,1,2,3,4,0,1,2,3,4,0,1,2,3,4,0,1,2,3,4,0,1,2,3,4,0,1,2,3,4,0,1,2,3,4,0,1,2,3,4,0,1,2,3,4,0,1,2,3,4,0,1,2,3,4,0,1,2,3,4,0,1,2,3,4,0,1,2,3,4,0,1,2,3,4,0,1,2,3,4,0,1,2,3,4,0,1,2,3,4,0,1,2,3,4,0,1,2,3,4,0,1,2,3,4,0,1,2,3,4,0,1,2,3,4,0,1,2,3,4,0,1,2,3,4,0,1,2,3,4,0,1,2,3,4,0,1,2,3,4,0,1,2,3,4,0,1,2,3,4,0,1,2,3,4,0,1,2,3,4,0,1,2,3,4,0,1,2,3,4,0,1,2,3,4,0,1,2,3,4,0,1,2,3,4,0,1,2,3,4,0,1,2,3,4,0,1,2,3,4,0,1,2,3,4,0,1,2,3,4,0,1,2,3,4,0,1,2,3,4,0,1,2,3,4,0,1,2,3,4,0,1,2,3,4,0,1,2,3,4,0,1,2,3,4,0,1,2,3,4,0,1,2,3,4,0,1,2,3,4,0,1,2,3,4,0,1,2,3,4,0,1,2,3,4,0,1,2,3,4,0,1,2,3,4,0,1,2,3,4,0,1,2,3,4,0,1,2,3,4,0,1,2,3,4,0,1,2,3,4,0,1,2,3,4,0,1,2,3,4,0,1,2,3,4,0,1,2,3,4,0,1,2,3,4,0,1,2,3,4,0,1,2,3,4,0,1,2,3,4,0,1,2,3,4,0,1,2,3,4,0,1,2,3,4,0,1,2,3,4,0,1,2,3,4,0,1,2,3,4,0,1,2,3,4,0,1,2,3,4,0,1,2,3,4,0,1,2,3,4,0,1,2,3,4,0,1,2,3,4,0,1,2,3,4,0,1,2,3,4,0,1,2,3,4,0,1,2,3,4,0,1,2,3,4,0,1,2,3,4,0,1,2,3,4,0,1,2,3,4,0,1,2,3,4,0,1,2,3,4,0,1,2,3,4,0,1,2,3,4],"trees":[{"base_weights":[-4.5019785E-1,-4.1894785E-1,-4.775248E-1,-5.322183E-1,-3.8959527E-1,-4.548119E-1,-5.4688245E-1,-5.504207E-1,-2.351738E-1,-4.7458196E-1,-3.6842102E-1,-4.5926479E-1,-2.770083E-2,-5.532965E-1,3.649635E-2,-5.562561E-1,-1.459854E-1,1.4814815E-1,-3.5796764E-1,-4.9481452E-1,1.9455252E-2,-4.3866828E-1,-3.3745047E-1,7.751938E-2,-4.6107164E-1,2.8708133E-1,-3.9548022E-1,-5.961567E-1,-4.7396526E-1,1.849315E-1,-1.3483146E-1,-3.3546326E-1,-5.643159E-1,-1.2328767E-1,1.12359546E-1,7.751938E-2,-5.0151974E-1,-2.5906734E-2,-5.0896573E-1,-3.1100476E-1,2.8767124E-1,3.9325842E-1,-4.473503E-1,-1.4002334E-1,-3.4744233E-1,-1.2328767E-1,1.4814815E-1,-4.702511E-1,-3.3920136E-1,2.8767124E-1,-6.21118E-2,-1.5328467E-1,-0E0,-1.6853932E-1,-5.996944E-1,-5.244225E-1,-3.4543842E-1,-1.4007781E-1,5.5555556E-2,-1.5280801E-1,-1.7664409E-1,-1.05263166E-1,1.5789473E-1,-1.3483146E-1,2.3076923E-1,2.6315792E-2,-1.7171717E-1,-1.11801244E-1,2.8947368E-1,-3.4883723E-2,-1.5479046E-1,-1.4876033E-1,-1.3274337E-2,2.8947368E-1,-1.05263166E-1,-1.3679966E-1,9.27835E-2,-7.937585E-2,1.5517241E-1,-2.7162978E-2,-1.0651854E-1,-1.4261916E-1,-1.00679696E-1,1.6770187E-1,-1.2038303E-1,1.15384616E-1,-8.677686E-2,2.6315792E-2,-1.05263166E-1,-1.8096639E-1,-7.964602E-2,-1.2077012E-1,-1.7247099E-1,-1.1971831E-1,1.1797753E-1],"categories":[],"categories_nodes":[],"categories_segments":[],"categories_sizes":[],"default_left":[0,0,0,0,0,0,0,0,0,0,0,0,0,0,0,0,0,0,0,0,0,0,0,0,0,0,0,0,0,0,0,0,0,0,0,0,0,0,0,0,0,0,0,0,0,0,0,0,0,0,0,0,0,0,0,0,0,0,0,0,0,0,0,0,0,0,0,0,0,0,0,0,0,0,0,0,0,0,0,0,0,0,0,0,0,0,0,0,0,0,0,0,0,0,0],"id":0,"left_children":[1,3,5,7,9,11,13,15,17,19,21,23,25,27,29,31,33,-1,35,37,39,41,43,45,47,49,51,53,55,-1,-1,57,59,-1,61,63,65,67,69,71,-1,73,75,77,79,-1,-1,81,83,-1,85,-1,-1,87,89,91,93,-1,-1,-1,-1,-1,-1,-1,-1,-1,-1,-1,-1,-1,-1,-1,-1,-1,-1,-1,-1,-1,-1,-1,-1,-1,-1,-1,-1,-1,-1,-1,-1,-1,-1,-1,-1,-1,-1],"loss_changes":[2.5534058E0,4.820923E0,2.4497986E0,1.5387039E0,1.9933014E0,2.4527893E0,1.5829239E0,6.031189E-1,1.9277234E0,2.3769913E0,1.9601288E0,1.2799988E0,1.7852594E0,1.1222534E0,1.8213907E0,3.1871033E-1,4.213062E-1,0E0,1.1216385E0,1.4968147E0,3.4896529E0,2.2933617E0,1.2865219E0,1.2522664E0,1.2710571E0,2.020781E0,3.2331216E-1,2.9883575E-1,7.903137E-1,0E0,0E0,9.434105E-1,6.891632E-2,0E0,8.6733687E-1,2.2265549E0,5.9976935E-1,3.0120354E0,5.472641E-1,3.9031976E-1,0E0,1.8529469E0,2.0426483E0,2.9433842E0,1.2275772E0,0E0,0E0,6.626587E-1,5.4186E0,0E0,7.647293E-1,0E0,0E0,1.9712201E-1,1.484375E-1,4.1839027E-1,1.9457598E0,0E0,0E0,0E0,0E0,0E0,0E0,0E0,0E0,0E0,0E0,0E0,0E0,0E0,0E0,0E0,0E0,0E0,0E0,0E0,0E0,0E0,0E0,0E0,0E0,0E0,0E0,0E0,0E0,0E0,0E0,0E0,0E0,0E0,0E0,0E0,0E0,0E0,0E0],"parents":[2147483647,0,0,1,1,2,2,3,3,4,4,5,5,6,6,7,7,8,8,9,9,10,10,11,11,12,12,13,13,14,14,15,15,16,16,18,18,19,19,20,20,21,21,22,22,23,23,24,24,25,25,26,26,27,27,28,28,31,31,32,32,34,34,35,35,36,36,37,37,38,38,39,39,41,41,42,42,43,43,44,44,47,47,48,48,50,50,53,53,54,54,55,55,56,56],"right_children":[2,4,6,8,10,12,14,16,18,20,22,24,26,28,30,32,34,-1,36,38,40,42,44,46,48,50,52,54,56,-1,-1,58,60,-1,62,64,66,68,70,72,-1,74,76,78,80,-1,-1,82,84,-1,86,-1,-1,88,90,92,94,-1,-1,-1,-1,-1,-1,-1,-1,-1,-1,-1,-1,-1,-1,-1,-1,-1,-1,-1,-1,-1,-1,-1,-1,-1,-1,-1,-1,-1,-1,-1,-1,-1,-1,-1,-1,-1,-1],"split_conditions":[-6.551274E-2,-1.169986E0,3.148118E-1,1.0251955E0,-5.461403E-1,1.48193E0,1.745142E0,-1.13510735E-1,4.7851002E-1,1.2969786E0,-1.3324316E-2,-5.842631E-1,1.1839827E0,7.803214E-1,1.7950233E0,-6.9763714E-1,-1.5831944E0,1.4814815E-1,-6.526085E-1,-1.6349969E0,-1.9153994E-1,-1.7789224E0,-6.271848E-1,6.565903E-1,1.6743778E0,-3.4027275E-1,1.663333E0,-1.7387882E0,-2.712356E-1,1.849315E-1,-1.3483146E-1,-1.6072345E0,-5.904892E-1,-1.2328767E-1,2.591637E-1,-1.574933E0,1.0588763E0,-4.970092E-1,-1.1576061E0,-6.002664E-1,2.8767124E-1,-1.1134329E0,1.8867315E0,1.4478812E0,6.48805E-2,-1.2328767E-1,1.4814815E-1,1.0086253E0,7.863342E-2,2.8767124E-1,-1.6821965E0,-1.5328467E-1,-0E0,4.6756724E-1,5.8255734E0,-1.1134329E0,3.5663133E0,-1.4007781E-1,5.5555556E-2,-1.5280801E-1,-1.7664409E-1,-1.05263166E-1,1.5789473E-1,-1.3483146E-1,2.3076923E-1,2.6315792E-2,-1.7171717E-1,-1.11801244E-1,2.8947368E-1,-3.4883723E-2,-1.5479046E-1,-1.4876033E-1,-1.3274337E-2,2.8947368E-1,-1.05263166E-1,-1.3679966E-1,9.27835E-2,-7.937585E-2,1.5517241E-1,-2.7162978E-2,-1.0651854E-1,-1.4261916E-1,-1.00679696E-1,1.6770187E-1,-1.2038303E-1,1.15384616E-1,-8.677686E-2,2.6315792E-2,-1.05263166E-1,-1.8096639E-1,-7.964602E-2,-1.2077012E-1,-1.7247099E-1,-1.1971831E-1,1.1797753E-1],"split_indices":[0,1,5,2,3,3,0,0,4,1,4,3,0,1,0,5,1,0,5,2,0,0,5,0,1,5,0,2,4,0,0,0,5,0,4,0,2,4,1,4,0,2,2,2,4,0,0,4,0,0,2,0,0,0,3,2,3,0,0,0,0,0,0,0,0,0,0,0,0,0,0,0,0,0,0,0,0,0,0,0,0,0,0,0,0,0,0,0,0,0,0,0,0,0,0],"split_type":[0,0,0,0,0,0,0,0,0,0,0,0,0,0,0,0,0,0,0,0,0,0,0,0,0,0,0,0,0,0,0,0,0,0,0,0,0,0,0,0,0,0,0,0,0,0,0,0,0,0,0,0,0,0,0,0,0,0,0,0,0,0,0,0,0,0,0,0,0,0,0,0,0,0,0,0,0,0,0,0,0,0,0,0,0,0,0,0,0,0,0,0,0,0,0],"sum_hessian":[3.22336E3,1.5113601E3,1.7120001E3,3.0752002E2,1.2038401E3,1.2953601E3,4.1664E2,2.8896002E2,1.8560001E1,2.3584001E2,9.6800006E2,1.28192E3,1.3440001E1,4.1216003E2,4.4800005E0,2.8448E2,4.4800005E0,2.2400002E0,1.6320002E1,2.2656001E2,9.280001E0,2.9216003E2,6.7584E2,4.1600003E0,1.2777601E3,7.3600006E0,6.0800004E0,2.6336002E2,1.488E2,1.9200001E0,2.5600002E0,1.152E1,2.7296002E2,1.9200001E0,2.5600002E0,4.1600003E0,1.2160001E1,6.7200003E0,2.1984001E2,7.3600006E0,1.9200001E0,2.5600002E0,2.896E2,3.3280003E1,6.4256006E2,1.9200001E0,2.2400002E0,1.1856001E3,9.216E1,1.9200001E0,5.4400005E0,4.4800005E0,1.6000001E0,2.5600002E0,2.6080002E2,1.0464001E2,4.4160004E1,9.280001E0,2.2400002E0,9.0880005E1,1.8208002E2,1.2800001E0,1.2800001E0,2.5600002E0,1.6000001E0,1.2800001E0,1.0880001E1,5.4400005E0,1.2800001E0,4.1600003E0,2.1568001E2,3.8400002E0,3.5200002E0,1.2800001E0,1.2800001E0,2.8672003E2,2.88E0,2.8480001E1,4.8E0,1.8880001E1,6.2368005E2,1.1395201E3,4.608E1,5.4400005E0,8.672001E1,1.6000001E0,3.8400002E0,1.2800001E0,1.2800001E0,2.5728003E2,3.5200002E0,3.3280003E1,7.136001E1,4.1600002E1,2.5600002E0],"tree_param":{"num_deleted":"0","num_feature":"6","num_nodes":"95","size_leaf_vector":"1"}},{"base_weights":[-4.2321575E-1,-4.7189587E-1,-3.9024085E-1,-3.7833422E-1,-5.083143E-1,-1.1914543E-1,-3.970516E-1,-2.749784E-1,-4.3925393E-1,-5.1416487E-1,-2.6622295E-1,1.9480519E-1,-2.5670943E-1,-5.094764E-1,-3.8244814E-1,-1.02595046E-1,-4.2639866E-1,-2.7520096E-1,-5.006031E-1,-1.829541E-1,-5.007235E-1,-3.211009E-1,5.5555556E-2,-1.7412935E-1,5.2631575E-1,-3.6674816E-2,-4.334038E-1,-1.11111104E-1,-5.2446866E-1,-3.504779E-1,-4.5105928E-1,-2.1536252E-2,-4.8442903E-1,-4.5691147E-1,3.649635E-2,-3.7549406E-1,7.957559E-2,-5.326309E-1,-3.386454E-1,-4.772008E-1,-5.418719E-1,-4.347826E-1,-1.11111104E-1,1.7699115E-1,-1.460177E-1,2.0710059E-1,3.4615386E-1,-2.2491348E-1,3.4482756E-1,8.219178E-2,-1.5882352E-1,-1.511628E-1,3.305785E-1,-5.2859104E-1,-0E0,-3.1448883E-1,-4.0601164E-1,-2.992776E-1,-4.6216765E-1,-5.0326187E-2,1.3043478E-1,-1.6867469E-1,-0E0,-4.674221E-2,-1.5738758E-1,-1.3917525E-1,2.3076923E-1,-1.2244898E-1,1.15384616E-1,3.247423E-1,-7.377049E-2,-1.6839291E-1,-9.3541205E-2,1.775148E-2,-1.3054186E-1,-1.512592E-1,-1.1866946E-1,-1.6342743E-1,-3.7037037E-2,-0E0,-1.4754099E-1,1.4285713E-1,-1.5517241E-1,-1.05263166E-1,1.4814815E-1,1.6115703E-1,-1.2328767E-1,1.4814815E-1,-1.3519312E-1,-1.2962963E-1,2.8651685E-1,2.0224719E-1,-1.05263166E-1,-1.5965715E-1,-6.185567E-2,-1.09837815E-1,-7.176733E-2,-6.550218E-2,-1.2793018E-1,-1.12716764E-1,8.139534E-2,-1.4020678E-1,-5.2529182E-2],"categories":[],"categories_nodes":[],"categories_segments":[],"categories_sizes":[],"default_left":[0,0,0,0,0,0,0,0,0,0,0,0,0,0,0,0,0,0,0,0,0,0,0,0,0,0,0,0,0,0,0,0,0,0,0,0,0,0,0,0,0,0,0,0,0,0,0,0,0,0,0,0,0,0,0,0,0,0,0,0,0,0,0,0,0,0,0,0,0,0,0,0,0,0,0,0,0,0,0,0,0,0,0,0,0,0,0,0,0,0,0,0,0,0,0,0,0,0,0,0,0,0,0],"id":1,"left_children":[1,3,5,7,9,11,13,15,17,19,21,23,25,27,29,31,33,35,37,-1,39,41,-1,43,45,47,49,51,53,55,57,59,61,63,65,67,69,71,73,75,77,79,81,83,-1,85,-1,87,89,-1,-1,-1,91,93,-1,95,97,99,101,-1,-1,-1,-1,-1,-1,-1,-1,-1,-1,-1,-1,-1,-1,-1,-1,-1,-1,-1,-1,-1,-1,-1,-1,-1,-1,-1,-1,-1,-1,-1,-1,-1,-1,-1,-1,-1,-1,-1,-1,-1,-1,-1,-1],"loss_changes":[4.991577E0,4.2281494E0,3.5125732E0,2.1925201E0,1.1816406E0,2.1524153E0,2.892334E0,3.5823898E0,2.1718292E0,8.622589E-1,6.5499055E-1,1.975155E0,1.3168731E0,1.2148056E0,3.5011444E0,2.0409997E0,1.0567856E0,2.3313012E0,6.796608E-1,0E0,5.17334E-1,4.7210026E-1,0E0,9.6860814E-1,1.4356897E0,1.2524254E0,1.4299722E0,1.727892E0,4.4356918E-1,2.1555939E0,7.498169E-1,3.7906804E0,4.357915E-1,1.3283548E0,2.3662138E0,1.4134922E0,5.188606E0,6.9057846E-1,1.1819651E0,9.431381E-1,2.759552E-1,3.42124E-1,2.392994E0,9.292323E-1,0E0,1.5999041E0,0E0,2.0980525E0,3.1624742E0,0E0,0E0,0E0,1.3697536E0,1.2649918E-1,0E0,2.6237564E0,1.6154938E0,1.7926178E0,6.464844E-1,0E0,0E0,0E0,0E0,0E0,0E0,0E0,0E0,0E0,0E0,0E0,0E0,0E0,0E0,0E0,0E0,0E0,0E0,0E0,0E0,0E0,0E0,0E0,0E0,0E0,0E0,0E0,0E0,0E0,0E0,0E0,0E0,0E0,0E0,0E0,0E0,0E0,0E0,0E0,0E0,0E0,0E0,0E0,0E0],"parents":[2147483647,0,0,1,1,2,2,3,3,4,4,5,5,6,6,7,7,8,8,9,9,10,10,11,11,12,12,13,13,14,14,15,15,16,16,17,17,18,18,20,20,21,21,23,23,24,24,25,25,26,26,27,27,28,28,29,29,30,30,31,31,32,32,33,33,34,34,35,35,36,36,37,37,38,38,39,39,40,40,41,41,42,42,43,43,45,45,47,47,48,48,52,52,53,53,55,55,56,56,57,57,58,58],"right_children":[2,4,6,8,10,12,14,16,18,20,22,24,26,28,30,32,34,36,38,-1,40,42,-1,44,46,48,50,52,54,56,58,60,62,64,66,68,70,72,74,76,78,80,82,84,-1,86,-1,88,90,-1,-1,-1,92,94,-1,96,98,100,102,-1,-1,-1,-1,-1,-1,-1,-1,-1,-1,-1,-1,-1,-1,-1,-1,-1,-1,-1,-1,-1,-1,-1,-1,-1,-1,-1,-1,-1,-1,-1,-1,-1,-1,-1,-1,-1,-1,-1,-1,-1,-1,-1,-1],"split_conditions":[-4.594362E-1,-6.1863476E-1,-1.7959304E0,-5.7196957E-1,1.6802154E0,8.218801E-1,-5.780635E-1,-7.53751E-2,-1.1799501E0,-1.4652287E0,-2.2665821E-1,6.161793E-1,2.3970449E-1,-4.511621E-1,3.7346306E-1,2.7821562E-1,-5.7376343E-1,-5.096237E-1,1.284858E0,-1.829541E-1,-8.213741E-2,1.8221586E0,5.5555556E-2,-2.4848056E-1,1.4902162E-2,1.2102891E0,-3.1967118E-1,-6.57486E-1,1.9454584E0,3.5283726E-1,-9.275785E-1,-8.8980067E-1,-5.732289E-1,-1.6382994E-1,-6.4629054E-1,-1.2500706E0,-4.0559876E-1,1.1306653E0,1.4167448E0,5.3444767E-1,1.5806205E0,1.7036989E0,-4.3498638E-1,-1.4503078E0,-1.460177E-1,-5.969961E-1,3.4615386E-1,-3.0375153E-1,1.2387785E0,8.219178E-2,-1.5882352E-1,-1.511628E-1,1.2387785E0,2.1646812E0,-0E0,2.1280596E-1,-4.272841E-1,6.222779E-1,1.8644799E0,-5.0326187E-2,1.3043478E-1,-1.6867469E-1,-0E0,-4.674221E-2,-1.5738758E-1,-1.3917525E-1,2.3076923E-1,-1.2244898E-1,1.15384616E-1,3.247423E-1,-7.377049E-2,-1.6839291E-1,-9.3541205E-2,1.775148E-2,-1.3054186E-1,-1.512592E-1,-1.1866946E-1,-1.6342743E-1,-3.7037037E-2,-0E0,-1.4754099E-1,1.4285713E-1,-1.5517241E-1,-1.05263166E-1,1.4814815E-1,1.6115703E-1,-1.2328767E-1,1.4814815E-1,-1.3519312E-1,-1.2962963E-1,2.8651685E-1,2.0224719E-1,-1.05263166E-1,-1.5965715E-1,-6.185567E-2,-1.09837815E-1,-7.176733E-2,-6.550218E-2,-1.2793018E-1,-1.12716764E-1,8.139534E-2,-1.4020678E-1,-5.2529182E-2],"split_indices":[3,5,2,3,0,1,5,2,0,0,4,3,0,3,3,1,3,1,1,0,1,0,0,3,0,5,3,1,4,0,0,1,3,4,5,0,1,2,1,0,0,0,2,0,0,0,0,5,1,0,0,0,1,2,0,1,3,1,1,0,0,0,0,0,0,0,0,0,0,0,0,0,0,0,0,0,0,0,0,0,0,0,0,0,0,0,0,0,0,0,0,0,0,0,0,0,0,0,0,0,0,0,0],"split_type":[0,0,0,0,0,0,0,0,0,0,0,0,0,0,0,0,0,0,0,0,0,0,0,0,0,0,0,0,0,0,0,0,0,0,0,0,0,0,0,0,0,0,0,0,0,0,0,0,0,0,0,0,0,0,0,0,0,0,0,0,0,0,0,0,0,0,0,0,0,0,0,0,0,0,0,0,0,0,0,0,0,0,0,0,0,0,0,0,0,0,0,0,0,0,0,0,0,0,0,0,0,0,0],"sum_hessian":[3.22336E3,1.2963201E3,1.9270402E3,3.6640002E2,9.2992004E2,4.7680004E1,1.8793601E3,1.3792001E2,2.2848001E2,9.0688007E2,2.304E1,1.4400001E1,3.3280003E1,2.1216002E2,1.6672001E3,6.528001E1,7.264001E1,6.3680004E1,1.6480002E2,1.06240005E2,8.006401E2,2.0800001E1,2.2400002E0,7.0400004E0,7.3600006E0,1.5360001E1,1.7920002E1,8.000001E0,2.0416002E2,1.1414401E3,5.2576E2,5.4720005E1,1.056E1,6.816E1,4.4800005E0,4.9600002E1,1.4080001E1,1.3568001E2,2.9120003E1,5.1744006E2,2.832E2,1.2800001E1,8.000001E0,3.5200002E0,3.5200002E0,5.76E0,1.6000001E0,1.056E1,4.8E0,1.9200001E0,1.6000002E1,4.1600003E0,3.8400002E0,2.0256001E2,1.6000001E0,6.966401E2,4.4480002E2,3.7760002E1,4.8800003E2,4.1920002E1,1.2800001E1,8.960001E0,1.6000001E0,1.3120001E1,5.5040005E1,2.88E0,1.6000001E0,4.8000004E1,1.6000001E0,2.88E0,1.1200001E1,1.1872001E2,1.6960001E1,5.76E0,2.3360003E1,3.8496002E2,1.3248001E2,2.8096002E2,2.2400002E0,1.6000001E0,1.1200001E1,3.2000003E0,4.8E0,1.2800001E0,2.2400002E0,3.8400002E0,1.9200001E0,2.2400002E0,8.320001E0,2.2400002E0,2.5600002E0,2.5600002E0,1.2800001E0,1.9968001E2,2.88E0,4.1088004E2,2.8576E2,4.4800003E1,4.0000003E2,3.3600002E1,4.1600003E0,4.7872003E2,9.280001E0],"tree_param":{"num_deleted":"0","num_feature":"6","num_nodes":"103","size_leaf_vector":"1"}},{"base_weights":[-4.306591E-1,-5.170707E-1,-4.1812587E-1,-1.8304278E-1,-4.428496E-1,-4.094182E-1,-5.207373E-1,-2.8776976E-1,-4.9655497E-1,-4.1641524E-1,-2.9480824E-1,-5.247543E-1,2.6315792E-2,1.1764705E-1,-4.3401238E-1,-4.5088565E-1,-1.8334809E-1,-4.22969E-1,-2.9539126E-1,6.589147E-1,-3.258246E-1,-1.6985498E-1,-4.5705095E-1,8.2949305E-1,-1.6738197E-1,-1.7667437E-1,-3.2593617E-1,-4.7025588E-1,1.2396694E-1,-3.934613E-1,-4.4702035E-1,-5.415162E-2,-4.6983448E-1,-1.15384616E-1,3.7078652E-1,2.3131672E-1,-3.6855742E-1,-2.494331E-1,-5.025553E-1,4.0062112E-1,-1.2962963E-1,8.219178E-2,-1.1367013E-1,-1.4469619E-1,-2.4793388E-2,-1.2962963E-1,2.3076923E-1,-1.2012441E-1,-4.4863455E-2,-8.786936E-2,-1.3697417E-1,1.6216215E-1,-4.285714E-2,-1.474181E-1,1.54639175E-2,-9.3023255E-2,1.7796609E-1,-1.1894477E-1,5.8365758E-3,-1.3043478E-1,9.917355E-2,-1.5442452E-1,2.6315792E-2],"categories":[],"categories_nodes":[],"categories_segments":[],"categories_sizes":[],"default_left":[0,0,0,0,0,0,0,0,0,0,0,0,0,0,0,0,0,0,0,0,0,0,0,0,0,0,0,0,0,0,0,0,0,0,0,0,0,0,0,0,0,0,0,0,0,0,0,0,0,0,0,0,0,0,0,0,0,0,0,0,0,0,0],"id":2,"left_children":[1,3,5,-1,7,9,11,13,15,17,19,21,-1,23,25,27,-1,29,31,33,35,-1,37,39,-1,-1,41,43,45,47,49,51,53,-1,-1,55,57,59,61,-1,-1,-1,-1,-1,-1,-1,-1,-1,-1,-1,-1,-1,-1,-1,-1,-1,-1,-1,-1,-1,-1,-1,-1],"loss_changes":[3.2758179E0,2.5219803E0,2.3075256E0,0E0,1.7603607E0,1.9663696E0,5.764122E-1,3.6771884E0,6.0562134E-1,1.8205261E0,4.7500534E0,3.462944E-1,0E0,8.638344E0,5.6408596E-1,1.441267E0,0E0,1.4738464E0,5.4166822E0,3.5825074E0,3.636488E0,0E0,6.973381E-1,6.1170597E0,0E0,0E0,1.0201623E0,5.22995E-1,2.0690196E0,1.7247009E0,1.7424316E0,2.9997072E0,8.674698E-1,0E0,0E0,2.386226E0,1.5129528E0,2.0401156E0,5.5212593E-1,0E0,0E0,0E0,0E0,0E0,0E0,0E0,0E0,0E0,0E0,0E0,0E0,0E0,0E0,0E0,0E0,0E0,0E0,0E0,0E0,0E0,0E0,0E0,0E0],"parents":[2147483647,0,0,1,1,2,2,4,4,5,5,6,6,7,7,8,8,9,9,10,10,11,11,13,13,14,14,15,15,17,17,18,18,19,19,20,20,22,22,23,23,26,26,27,27,28,28,29,29,30,30,31,31,32,32,35,35,36,36,37,37,38,38],"right_children":[2,4,6,-1,8,10,12,14,16,18,20,22,-1,24,26,28,-1,30,32,34,36,-1,38,40,-1,-1,42,44,46,48,50,52,54,-1,-1,56,58,60,62,-1,-1,-1,-1,-1,-1,-1,-1,-1,-1,-1,-1,-1,-1,-1,-1,-1,-1,-1,-1,-1,-1,-1,-1],"split_conditions":[-5.654018E-1,-8.2940537E-1,1.499729E0,-1.8304278E-1,-6.4365935E-1,1.5806205E0,1.7462159E0,-3.4014188E-2,1.5738104E-1,1.6743778E0,-5.62267E-1,1.8867315E0,2.6315792E-2,-5.796396E-1,-6.7976284E-1,5.291636E-2,-1.8334809E-1,-1.3398154E-1,3.2161295E-1,-1.220074E0,-1.2805725E0,-1.6985498E-1,-5.30556E-1,1.6653188E0,-1.6738197E-1,-1.7667437E-1,-6.7663103E-1,1.745142E0,-5.761246E-1,-1.6729595E-1,-1.507519E0,-1.5444508E0,8.514025E-1,-1.15384616E-1,3.7078652E-1,-1.4671301E0,1.0174752E0,-5.377079E-1,2.3856628E0,4.0062112E-1,-1.2962963E-1,8.219178E-2,-1.1367013E-1,-1.4469619E-1,-2.4793388E-2,-1.2962963E-1,2.3076923E-1,-1.2012441E-1,-4.4863455E-2,-8.786936E-2,-1.3697417E-1,1.6216215E-1,-4.285714E-2,-1.474181E-1,1.54639175E-2,-9.3023255E-2,1.7796609E-1,-1.1894477E-1,5.8365758E-3,-1.3043478E-1,9.917355E-2,-1.5442452E-1,2.6315792E-2],"split_indices":[3,0,2,0,5,0,1,0,1,1,3,2,0,1,5,1,0,1,0,4,1,0,3,4,0,0,5,0,3,1,2,4,2,0,0,2,3,3,5,0,0,0,0,0,0,0,0,0,0,0,0,0,0,0,0,0,0,0,0,0,0,0,0],"split_type":[0,0,0,0,0,0,0,0,0,0,0,0,0,0,0,0,0,0,0,0,0,0,0,0,0,0,0,0,0,0,0,0,0,0,0,0,0,0,0,0,0,0,0,0,0,0,0,0,0,0,0,0,0,0,0,0,0,0,0,0,0,0,0],"sum_hessian":[3.22336E3,4.0320004E2,2.8201602E3,1.7568001E2,2.2752002E2,2.6041602E3,2.1600002E2,6.0160004E1,1.6736002E2,2.45184E3,1.5232E2,2.1472002E2,1.2800001E0,1.6000002E1,4.4160004E1,1.2320001E2,4.4160004E1,2.3235203E3,1.2832E2,4.1600003E0,1.4816E2,1.2864001E2,8.608001E1,7.6800003E0,8.320001E0,1.6320002E1,2.7840002E1,1.1936001E2,3.8400002E0,1.0512001E3,1.2723201E3,5.4400005E1,7.3920006E1,1.6000001E0,2.5600002E0,1.0240001E1,1.3792001E2,1.6640001E1,6.944E1,5.4400005E0,2.2400002E0,1.9200001E0,2.5920002E1,1.1552001E2,3.8400002E0,2.2400002E0,1.6000001E0,1.02144006E3,2.9760002E1,7.616E1,1.19616E3,6.4000006E0,4.8000004E1,7.104001E1,2.88E0,4.1600003E0,6.0800004E0,1.2864001E2,9.280001E0,1.2800001E1,3.8400002E0,6.816E1,1.2800001E0],"tree_param":{"num_deleted":"0","num_feature":"6","num_nodes":"63","size_leaf_vector":"1"}},{"base_weights":[3.850066E-1,4.7589257E-1,2.800683E-1,2.4984384E-2,4.9296618E-1,2.4807836E-1,4.1405705E-1,-1.19760476E-1,3.9387307E-1,3.0994618E-1,5.1772195E-1,2.6241797E-1,-2.6160888E-2,1.226415E0,3.8156945E-1,-4.8042703E-1,-5.476451E-3,3.333333E-1,2.2443889E-1,5.1325917E-2,3.8600567E-1,5.53662E-1,4.155844E-1,2.4981435E-1,8.951175E-1,-2.8028932E-1,1.1488511E-1,3.9823008E-1,1.5819209E0,8.103727E-3,4.163387E-1,-1.6867469E-1,2.6315792E-2,3.2467532E-1,-2.3508136E-1,7.142857E-1,4.672897E-2,3.7414965E-1,-1.3944222E-1,6.2793815E-1,2.3246159E-1,2.6823133E-1,5.6631166E-1,3.9603958E-1,1.0894941E0,3.6658204E-1,2.1333702E-1,-1.6853932E-1,1.0429448E0,9.31677E-2,-4.0767384E-1,3.2E-1,-2.1197006E-1,-1.05263166E-1,2.4074075E-1,1.15384616E-1,5.583942E-1,2.8767124E-1,-1.142355E-1,5.1212937E-1,2.416195E-1,-1.460177E-1,1.8181817E-1,-9.213051E-2,1.5789473E-1,2.6315792E-2,2.8767124E-1,-1.460177E-1,9.012875E-2,5.8365758E-3,2.2966507E-1,-6.382979E-2,1.849315E-1,1.1872909E-1,2.8200972E-1,1.3053988E-1,5.0293375E-3,1.1625403E-1,-4.152249E-2,2.106599E-1,1.6193064E-1,1.13238335E-1,3.333333E-1,3.870968E-1,-0E0,2.8267476E-1,1.0065697E-1,5.569704E-2,1.4467767E-1,2.6315792E-2,-1.05263166E-1,3.6027712E-1,-3.7037037E-2,-1.3917525E-1,2.0224719E-1,-1.3527851E-1,-0E0,-7.6271184E-2,1.5539113E-1,9.322034E-2,-1.6867469E-1,-1.1218837E-1,9.012875E-2,1.9808803E-1,9.773829E-2,-5.7823125E-2,1.02073364E-1],"categories":[],"categories_nodes":[],"categories_segments":[],"categories_sizes":[],"default_left":[0,0,0,0,0,0,0,0,0,0,0,0,0,0,0,0,0,0,0,0,0,0,0,0,0,0,0,0,0,0,0,0,0,0,0,0,0,0,0,0,0,0,0,0,0,0,0,0,0,0,0,0,0,0,0,0,0,0,0,0,0,0,0,0,0,0,0,0,0,0,0,0,0,0,0,0,0,0,0,0,0,0,0,0,0,0,0,0,0,0,0,0,0,0,0,0,0,0,0,0,0,0,0,0,0,0,0],"id":3,"left_children":[1,3,5,7,9,11,13,15,17,19,21,23,25,27,29,31,33,-1,35,37,39,41,43,45,47,49,51,53,55,57,59,-1,-1,61,63,65,67,69,71,73,75,77,79,81,83,85,87,89,91,93,95,97,99,-1,-1,-1,-1,-1,101,103,105,-1,-1,-1,-1,-1,-1,-1,-1,-1,-1,-1,-1,-1,-1,-1,-1,-1,-1,-1,-1,-1,-1,-1,-1,-1,-1,-1,-1,-1,-1,-1,-1,-1,-1,-1,-1,-1,-1,-1,-1,-1,-1,-1,-1,-1,-1],"loss_changes":[3.0618774E1,1.32789E1,6.32209E0,3.4665697E0,7.3760986E0,4.7750854E0,7.11697E0,1.9247427E0,1.9720936E0,3.9276676E0,5.1429443E0,8.96566E0,2.224408E0,2.4909325E0,3.603897E0,5.7183194E-1,2.8447046E0,0E0,1.3629143E0,2.9318628E0,5.6088905E0,3.746521E0,4.6395264E0,4.7401733E0,3.6538677E0,1.0902889E0,2.7522264E0,1.6503072E0,1.6525002E0,2.980323E0,4.1293335E0,0E0,0E0,3.811056E0,1.3746067E0,5.5961823E-1,1.8839606E0,2.4340246E0,1.8005273E0,3.9437065E0,4.2051435E0,2.3682852E0,3.3468933E0,4.5720215E0,2.249278E0,4.473427E0,6.3446045E0,1.9712201E-1,3.7525253E0,2.3971286E0,2.941308E-1,2.973737E0,3.1115117E0,0E0,0E0,0E0,0E0,0E0,2.56358E0,4.2916336E0,4.001636E0,0E0,0E0,0E0,0E0,0E0,0E0,0E0,0E0,0E0,0E0,0E0,0E0,0E0,0E0,0E0,0E0,0E0,0E0,0E0,0E0,0E0,0E0,0E0,0E0,0E0,0E0,0E0,0E0,0E0,0E0,0E0,0E0,0E0,0E0,0E0,0E0,0E0,0E0,0E0,0E0,0E0,0E0,0E0,0E0,0E0,0E0],"parents":[2147483647,0,0,1,1,2,2,3,3,4,4,5,5,6,6,7,7,8,8,9,9,10,10,11,11,12,12,13,13,14,14,15,15,16,16,18,18,19,19,20,20,21,21,22,22,23,23,24,24,25,25,26,26,27,27,28,28,29,29,30,30,33,33,34,34,35,35,36,36,37,37,38,38,39,39,40,40,41,41,42,42,43,43,44,44,45,45,46,46,47,47,48,48,49,49,50,50,51,51,52,52,58,58,59,59,60,60],"right_children":[2,4,6,8,10,12,14,16,18,20,22,24,26,28,30,32,34,-1,36,38,40,42,44,46,48,50,52,54,56,58,60,-1,-1,62,64,66,68,70,72,74,76,78,80,82,84,86,88,90,92,94,96,98,100,-1,-1,-1,-1,-1,102,104,106,-1,-1,-1,-1,-1,-1,-1,-1,-1,-1,-1,-1,-1,-1,-1,-1,-1,-1,-1,-1,-1,-1,-1,-1,-1,-1,-1,-1,-1,-1,-1,-1,-1,-1,-1,-1,-1,-1,-1,-1,-1,-1,-1,-1,-1,-1],"split_conditions":[-3.4475696E-1,-5.8148694E-1,8.214573E-1,3.2161295E-1,-1.4747589E0,3.216634E0,-6.165128E-1,-1.569536E0,5.1155496E-1,-5.713354E-1,-4.5409733E-1,3.1907432E0,-1.1134329E0,-6.842839E-1,-9.900639E-1,3.123362E-1,-1.1312965E0,3.333333E-1,-1.069016E0,-1.4061475E0,-5.904892E-1,-7.0287627E-1,1.7707365E0,-3.5383025E-1,-9.9161285E-1,-2.5967813E-1,9.9164015E-3,1.2006931E0,1.6084956E-2,-1.4652287E0,6.360466E-1,-1.6867469E-1,2.6315792E-2,-6.0995847E-1,9.0276873E-1,9.0135646E-1,-2.824307E-1,-1.6634974E0,-1.5127988E0,-5.400441E-1,-5.3649807E-1,-7.172548E-1,-8.663652E-1,1.7978446E0,-2.2322169E-1,-1.1174304E0,1.7193847E0,1.5549491E-1,4.579769E0,-5.969961E-1,-1.1685946E0,2.1543894E0,2.9246715E-1,-1.05263166E-1,2.4074075E-1,1.15384616E-1,5.583942E-1,2.8767124E-1,-2.5334123E-1,-6.102226E-3,-3.4489372E-1,-1.460177E-1,1.8181817E-1,-9.213051E-2,1.5789473E-1,2.6315792E-2,2.8767124E-1,-1.460177E-1,9.012875E-2,5.8365758E-3,2.2966507E-1,-6.382979E-2,1.849315E-1,1.1872909E-1,2.8200972E-1,1.3053988E-1,5.0293375E-3,1.1625403E-1,-4.152249E-2,2.106599E-1,1.6193064E-1,1.13238335E-1,3.333333E-1,3.870968E-1,-0E0,2.8267476E-1,1.0065697E-1,5.569704E-2,1.4467767E-1,2.6315792E-2,-1.05263166E-1,3.6027712E-1,-3.7037037E-2,-1.3917525E-1,2.0224719E-1,-1.3527851E-1,-0E0,-7.6271184E-2,1.5539113E-1,9.322034E-2,-1.6867469E-1,-1.1218837E-1,9.012875E-2,1.9808803E-1,9.773829E-2,-5.7823125E-2,1.02073364E-1],"split_indices":[3,3,2,0,1,3,5,1,0,3,3,5,2,5,0,2,1,0,4,0,5,5,4,5,2,0,4,2,1,0,1,0,0,2,1,0,2,0,1,3,3,5,4,1,1,1,3,0,5,0,4,5,1,0,0,0,0,0,5,0,0,0,0,0,0,0,0,0,0,0,0,0,0,0,0,0,0,0,0,0,0,0,0,0,0,0,0,0,0,0,0,0,0,0,0,0,0,0,0,0,0,0,0,0,0,0,0],"split_type":[0,0,0,0,0,0,0,0,0,0,0,0,0,0,0,0,0,0,0,0,0,0,0,0,0,0,0,0,0,0,0,0,0,0,0,0,0,0,0,0,0,0,0,0,0,0,0,0,0,0,0,0,0,0,0,0,0,0,0,0,0,0,0,0,0,0,0,0,0,0,0,0,0,0,0,0,0,0,0,0,0,0,0,0,0,0,0,0,0,0,0,0,0,0,0,0,0,0,0,0,0,0,0,0,0,0,0],"sum_hessian":[3.22336E3,1.7254401E3,1.4979202E3,6.3040005E1,1.6624001E3,1.2115201E3,2.8640002E2,4.5760002E1,1.728E1,1.9968001E2,1.4627201E3,1.1513601E3,6.0160004E1,9.6E0,2.7680002E2,1.0240001E1,3.5520004E1,2.2400002E0,1.5040001E1,4.5760002E1,1.5392001E2,1.0787201E3,3.8400003E2,1.1302401E3,2.112E1,2.112E1,3.904E1,3.5200002E0,6.0800004E0,2.3680002E1,2.5312001E2,8.960001E0,1.2800001E0,1.4400001E1,2.112E1,3.2000003E0,1.1840001E1,1.6640001E1,2.9120003E1,5.8560005E1,9.536001E1,4.6720005E1,1.0320001E3,3.7472003E2,9.280001E0,2.6688E2,8.6336005E2,2.5600002E0,1.8560001E1,5.4400005E0,1.5680001E1,2.4000002E1,1.5040001E1,1.2800001E0,2.2400002E0,1.6000001E0,4.4800005E0,1.9200001E0,2.1760002E1,1.6224E2,9.0880005E1,3.5200002E0,1.0880001E1,1.9840002E1,1.2800001E0,1.2800001E0,1.9200001E0,3.5200002E0,8.320001E0,9.280001E0,7.3600006E0,2.7200003E1,1.9200001E0,3.488E1,2.3680002E1,4.8640003E1,4.6720005E1,3.6160004E1,1.056E1,1.6448001E2,8.675201E2,3.6672003E2,8.000001E0,7.6800003E0,1.6000001E0,1.2160001E1,2.5472002E2,7.8432007E2,7.904001E1,1.2800001E0,1.2800001E0,1.6320002E1,2.2400002E0,2.88E0,2.5600002E0,1.4080001E1,1.6000001E0,6.0800004E0,1.7920002E1,6.0800004E0,8.960001E0,1.3440001E1,8.320001E0,8.896001E1,7.328001E1,1.6640001E1,7.4240005E1],"tree_param":{"num_deleted":"0","num_feature":"6","num_nodes":"107","size_leaf_vector":"1"}},{"base_weights":[9.190661E-1,8.8521355E-1,1.1401526E0,1.1638007E0,8.60468E-1,1.2709831E0,8.710948E-1,1.3721484E0,9.289116E-1,9.5536196E-1,8.0404484E-1,6.1692965E-1,1.3370733E0,1.4058355E0,8.01312E-1,1.0869565E0,1.5645256E0,3.7634405E-1,1.0310179E0,8.108725E-1,1.0755342E0,1.2908391E0,7.840498E-1,-1.2962963E-1,7.25429E-1,6.240126E-1,1.4090204E0,-1.15384616E-1,1.6468842E0,7.314974E-1,1.3707165E0,1.3293864E0,3.878116E-1,4.8532167E-1,5.371901E-1,-1.8315017E-2,8.2949305E-1,1.3666228E0,8.499678E-1,7.332697E-1,9.620148E-1,5.8558553E-1,1.104513E0,1.6061898E0,7.858243E-1,7.05399E-1,8.4563047E-1,9.6997684E-1,1.9313304E-1,1.1022364E0,1.4492753E-1,1.43019E0,-2.0618556E-1,8.219178E-2,1.851211E0,9.566786E-1,5.177993E-1,1.6300366E0,-2.0547945E-2,5.311284E-1,3.3572453E-1,2.1011673E-1,-9.3023255E-2,3.9041096E-1,-1.2328767E-1,1.19469024E-1,-8.108108E-2,3.333333E-1,3.3707865E-2,4.36214E-1,-1.05263166E-1,4.9792532E-2,2.8721017E-1,1.9179665E-1,2.849239E-1,2.9714206E-1,-1.3483146E-1,3.5403726E-1,1.2402496E-1,4.5646435E-1,3.177886E-1,-1.05263166E-1,5.055249E-1,-1.15384616E-1,2.635468E-1,2.4876462E-1,1.7682317E-1,2.6498172E-1,1.7814113E-1,8.823529E-2,3.6885247E-1,2.4074075E-1,-3.3898305E-2,4.090909E-1,1.3953489E-1,-1.5517241E-1,1.6666666E-1,4.454061E-1,2.3762375E-1,2.6315792E-2,-1.15384616E-1,1.849315E-1,6.099585E-1,2.0063694E-1,3.84E-1,1.0366361E-1,3.1300813E-1,5.165975E-1,1.5789473E-1],"categories":[],"categories_nodes":[],"categories_segments":[],"categories_sizes":[],"default_left":[0,0,0,0,0,0,0,0,0,0,0,0,0,0,0,0,0,0,0,0,0,0,0,0,0,0,0,0,0,0,0,0,0,0,0,0,0,0,0,0,0,0,0,0,0,0,0,0,0,0,0,0,0,0,0,0,0,0,0,0,0,0,0,0,0,0,0,0,0,0,0,0,0,0,0,0,0,0,0,0,0,0,0,0,0,0,0,0,0,0,0,0,0,0,0,0,0,0,0,0,0,0,0,0,0,0,0,0,0],"id":4,"left_children":[1,3,5,7,9,11,13,15,17,19,21,23,25,27,29,31,33,35,37,39,41,43,45,-1,47,49,51,-1,53,55,57,59,61,-1,63,65,67,69,71,73,75,77,79,81,83,85,87,89,91,93,95,97,99,-1,101,103,105,107,-1,-1,-1,-1,-1,-1,-1,-1,-1,-1,-1,-1,-1,-1,-1,-1,-1,-1,-1,-1,-1,-1,-1,-1,-1,-1,-1,-1,-1,-1,-1,-1,-1,-1,-1,-1,-1,-1,-1,-1,-1,-1,-1,-1,-1,-1,-1,-1,-1,-1,-1],"loss_changes":[2.3122803E1,1.8305664E1,1.3842041E1,9.767883E0,1.3024536E1,1.1432404E1,4.176796E0,4.7449036E0,5.770859E0,1.5714294E1,1.4773804E1,3.4867287E0,1.2289154E1,7.141737E0,4.087265E0,8.060825E0,2.8418274E0,3.3416047E0,4.401726E0,4.429596E0,6.7140503E0,8.681801E0,6.9608154E0,0E0,3.1502714E0,5.6413174E0,8.23999E0,0E0,3.2742615E0,5.0962677E0,4.903738E0,1.4654617E0,3.36718E0,0E0,4.041662E0,1.2536916E0,1.628149E0,5.080765E0,4.4044647E0,5.3614197E0,6.282364E0,2.6935005E0,7.597473E0,6.378128E0,3.153469E0,9.438324E0,7.723633E0,2.6764202E0,1.8291756E0,1.4508715E0,4.0396466E0,6.8042297E0,2.3721075E-1,0E0,1.3442917E0,4.3006134E0,5.2342243E0,2.0199013E-1,0E0,0E0,0E0,0E0,0E0,0E0,0E0,0E0,0E0,0E0,0E0,0E0,0E0,0E0,0E0,0E0,0E0,0E0,0E0,0E0,0E0,0E0,0E0,0E0,0E0,0E0,0E0,0E0,0E0,0E0,0E0,0E0,0E0,0E0,0E0,0E0,0E0,0E0,0E0,0E0,0E0,0E0,0E0,0E0,0E0,0E0,0E0,0E0,0E0,0E0,0E0],"parents":[2147483647,0,0,1,1,2,2,3,3,4,4,5,5,6,6,7,7,8,8,9,9,10,10,11,11,12,12,13,13,14,14,15,15,16,16,17,17,18,18,19,19,20,20,21,21,22,22,24,24,25,25,26,26,28,28,29,29,30,30,31,31,32,32,34,34,35,35,36,36,37,37,38,38,39,39,40,40,41,41,42,42,43,43,44,44,45,45,46,46,47,47,48,48,49,49,50,50,51,51,52,52,54,54,55,55,56,56,57,57],"right_children":[2,4,6,8,10,12,14,16,18,20,22,24,26,28,30,32,34,36,38,40,42,44,46,-1,48,50,52,-1,54,56,58,60,62,-1,64,66,68,70,72,74,76,78,80,82,84,86,88,90,92,94,96,98,100,-1,102,104,106,108,-1,-1,-1,-1,-1,-1,-1,-1,-1,-1,-1,-1,-1,-1,-1,-1,-1,-1,-1,-1,-1,-1,-1,-1,-1,-1,-1,-1,-1,-1,-1,-1,-1,-1,-1,-1,-1,-1,-1,-1,-1,-1,-1,-1,-1,-1,-1,-1,-1,-1,-1],"split_conditions":[8.181466E-1,-1.4747589E0,1.7193847E0,-5.4328513E-1,-3.7377787E-1,-1.067604E0,-6.979681E-1,-5.8471495E-1,-1.0052223E-1,-3.7042183E-1,-5.793847E-1,-1.1052814E0,-1.7191982E-2,-1.7959304E0,5.8255734E0,-5.5704296E-1,-3.527051E-1,1.0086253E0,4.5286867E-1,-4.8570976E-1,-1.7633228E0,-5.575806E-1,-5.575806E-1,-1.2962963E-1,3.600797E-1,-6.98808E-1,1.6743778E0,-1.15384616E-1,1.068206E0,7.0810914E-1,-1.12423204E-1,-1.0057329E0,-6.125606E-1,4.8532167E-1,-1.6127248E0,-3.0577245E-1,-5.186006E-1,9.919241E-2,5.964683E-1,-7.733831E-1,1.7978446E0,2.1280596E-1,-6.567572E-1,-7.5123125E-1,-1.3343779E0,-4.80851E-1,9.7608507E-1,-1.6821965E0,-5.4781103E-1,1.2164166E-1,-8.062296E-2,1.0195103E0,2.1770988E-1,8.219178E-2,-1.0044191E0,3.6050853E-1,4.9941358E-1,1.4628925E0,-2.0547945E-2,5.311284E-1,3.3572453E-1,2.1011673E-1,-9.3023255E-2,3.9041096E-1,-1.2328767E-1,1.19469024E-1,-8.108108E-2,3.333333E-1,3.3707865E-2,4.36214E-1,-1.05263166E-1,4.9792532E-2,2.8721017E-1,1.9179665E-1,2.849239E-1,2.9714206E-1,-1.3483146E-1,3.5403726E-1,1.2402496E-1,4.5646435E-1,3.177886E-1,-1.05263166E-1,5.055249E-1,-1.15384616E-1,2.635468E-1,2.4876462E-1,1.7682317E-1,2.6498172E-1,1.7814113E-1,8.823529E-2,3.6885247E-1,2.4074075E-1,-3.3898305E-2,4.090909E-1,1.3953489E-1,-1.5517241E-1,1.6666666E-1,4.454061E-1,2.3762375E-1,2.6315792E-2,-1.15384616E-1,1.849315E-1,6.099585E-1,2.0063694E-1,3.84E-1,1.0366361E-1,3.1300813E-1,5.165975E-1,1.5789473E-1],"split_indices":[5,1,3,0,4,2,0,5,0,3,3,0,3,2,3,3,3,4,0,5,2,0,0,0,0,1,1,0,5,1,2,2,5,0,2,0,5,5,0,4,1,1,5,5,1,3,0,2,1,2,0,0,0,0,0,1,0,1,0,0,0,0,0,0,0,0,0,0,0,0,0,0,0,0,0,0,0,0,0,0,0,0,0,0,0,0,0,0,0,0,0,0,0,0,0,0,0,0,0,0,0,0,0,0,0,0,0,0,0],"split_type":[0,0,0,0,0,0,0,0,0,0,0,0,0,0,0,0,0,0,0,0,0,0,0,0,0,0,0,0,0,0,0,0,0,0,0,0,0,0,0,0,0,0,0,0,0,0,0,0,0,0,0,0,0,0,0,0,0,0,0,0,0,0,0,0,0,0,0,0,0,0,0,0,0,0,0,0,0,0,0,0,0,0,0,0,0,0,0,0,0,0,0,0,0,0,0,0,0,0,0,0,0,0,0,0,0,0,0,0,0],"sum_hessian":[3.22336E3,2.7996802E3,4.2368002E2,2.2464001E2,2.5750403E3,2.8256003E2,1.4112001E2,1.1648001E2,1.0816001E2,9.5424005E2,1.6208002E3,2.6880001E1,2.5568002E2,1.4080001E1,1.2704001E2,4.9600002E1,6.6880005E1,1.76E1,9.0560005E1,4.3680002E2,5.1744006E2,6.1440002E1,1.5593601E3,2.2400002E0,2.4640001E1,2.4320002E1,2.3136002E2,1.6000001E0,1.24800005E1,1.15200005E2,1.1840001E1,3.6160004E1,1.3440001E1,6.3040005E1,3.8400002E0,9.920001E0,7.6800003E0,2.9440002E1,6.1120003E1,2.9248E2,1.4432E2,3.0080002E1,4.8736005E2,3.6480003E1,2.4960001E1,6.9024005E2,8.6912006E2,1.6320002E1,8.320001E0,1.152E1,1.2800001E1,2.2848001E2,2.88E0,1.9200001E0,1.056E1,5.4400005E1,6.0800003E1,9.920001E0,1.9200001E0,9.280001E0,2.6880001E1,9.280001E0,4.1600003E0,1.9200001E0,1.9200001E0,3.5200002E0,6.4000006E0,5.1200004E0,2.5600002E0,2.8160002E1,1.2800001E0,8.64E0,5.2480003E1,2.0672002E2,8.576001E1,1.4176001E2,2.5600002E0,5.4400005E0,2.4640001E1,4.4480003E1,4.4288004E2,1.2800001E0,3.52E1,1.6000001E0,2.3360003E1,3.3088004E2,3.5936002E2,7.5392004E2,1.15200005E2,5.1200004E0,1.1200001E1,2.2400002E0,6.0800004E0,7.3600006E0,4.1600003E0,4.8E0,8.000001E0,2.0928001E2,1.92E1,1.2800001E0,1.6000001E0,1.9200001E0,8.64E0,3.0400002E1,2.4000002E1,4.7040005E1,1.3760001E1,8.64E0,1.2800001E0],"tree_param":{"num_deleted":"0","num_feature":"6","num_nodes":"109","size_leaf_vector":"1"}},{"base_weights":[-4.0810382E-1,-3.760802E-1,-4.365152E-1,-4.9489802E-1,-3.4638843E-1,-4.1243252E-1,-5.115328E-1,-5.1464045E-1,-1.9381751E-1,-3.5308567E-1,-7.5793795E-2,-4.171261E-1,4.2203316E-3,-5.1854354E-1,5.709884E-2,-5.208673E-1,-1.2825166E-1,4.3926027E-1,-3.1689072E-1,-4.405541E-1,-3.3157307E-1,-2.4480942E-1,4.1615784E-1,-4.266033E-1,-2.9459637E-1,-2.3430555E-1,4.2382917E-1,-5.65457E-1,-4.345532E-1,-1.3241881E-1,1.9150327E-1,-4.4456157E-1,-5.53975E-1,1.2561604E-1,-1.1934671E-1,-1.0868161E-1,3.417778E-1,1.0393724E-1,-4.6813396E-1,-2.3273781E-1,-4.7842565E-1,-4.163866E-1,-2.9763073E-1,4.0461856E-1,-3.9795962E-1,-1.2975597E-1,9.055521E-1,1.8848152E-1,-4.2880613E-1,4.8923397E-1,-3.5784313E-1,1.8971622E-1,-1.5298994E-1,-1.0793266E-1,8.067853E-1,-1.4023368E-1,-5.6938046E-1,-4.8877707E-1,-3.010411E-1,-4.868738E-2,-1.542632E-1,-1.755536E-1,-1.4128959E-1,1.6108891E-1,-1.03318304E-1,-1.2456391E-1,2.0261623E-1,-1.6401404E-1,3.9578646E-2,-1.6323883E-2,-1.3083917E-1,-1.4654416E-1,7.419385E-2,1.1106578E-1,-1.279543E-1,-2.709888E-2,-9.25002E-2,2.7061787E-1,-1.10302195E-1,-1.6228674E-1,-5.872179E-2,4.427916E-1,5.1996283E-2,-1.16445325E-1,2.1224652E-1,-1.6690433E-1,-1.2636052E-1,2.5907707E-1,-1.20077126E-1,3.3788748E-2,-1.2098007E-1,1.3081333E-1,-9.684203E-2,3.0210119E-2,3.292554E-1,-1.0065089E-1,3.5647657E-2,-1.7198955E-1,-6.883498E-2,-1.0971143E-1,-1.6274194E-1,-1.06593594E-1,1.0226618E-1],"categories":[],"categories_nodes":[],"categories_segments":[],"categories_sizes":[],"default_left":[0,0,0,0,0,0,0,0,0,0,0,0,0,0,0,0,0,0,0,0,0,0,0,0,0,0,0,0,0,0,0,0,0,0,0,0,0,0,0,0,0,0,0,0,0,0,0,0,0,0,0,0,0,0,0,0,0,0,0,0,0,0,0,0,0,0,0,0,0,0,0,0,0,0,0,0,0,0,0,0,0,0,0,0,0,0,0,0,0,0,0,0,0,0,0,0,0,0,0,0,0,0,0],"id":5,"left_children":[1,3,5,7,9,11,13,15,17,19,21,23,25,27,29,31,33,35,37,39,41,43,45,47,49,51,53,55,57,-1,-1,59,61,63,-1,-1,-1,65,67,69,71,73,75,77,79,-1,81,83,85,87,89,91,-1,-1,93,95,97,99,101,-1,-1,-1,-1,-1,-1,-1,-1,-1,-1,-1,-1,-1,-1,-1,-1,-1,-1,-1,-1,-1,-1,-1,-1,-1,-1,-1,-1,-1,-1,-1,-1,-1,-1,-1,-1,-1,-1,-1,-1,-1,-1,-1,-1],"loss_changes":[2.4489136E0,4.617325E0,2.5271912E0,1.4995193E0,1.9473877E0,2.255478E0,1.4813232E0,5.3926086E-1,1.554199E0,1.8536987E0,2.3953793E0,1.1977081E0,1.4832953E0,1.1720581E0,1.8278158E0,3.7915802E-1,4.1416377E-1,2.306336E0,1.0533853E0,1.5157967E0,2.3432312E0,2.265572E0,3.4750333E0,1.5110474E0,4.3913693E0,1.2025172E0,1.9009986E0,2.997818E-1,8.1768036E-1,0E0,0E0,1.4888725E0,1.6109848E-1,8.6173975E-1,0E0,0E0,0E0,1.7613252E0,6.282501E-1,1.2027687E0,1.3899956E0,2.0893326E0,1.3379745E0,2.0733428E0,4.0380406E-1,0E0,1.8458543E0,1.6098633E0,7.861023E-1,2.600853E0,1.7396145E0,7.033211E-1,0E0,0E0,6.9293857E-1,2.122202E-1,1.6830444E-1,4.173622E-1,1.552834E0,0E0,0E0,0E0,0E0,0E0,0E0,0E0,0E0,0E0,0E0,0E0,0E0,0E0,0E0,0E0,0E0,0E0,0E0,0E0,0E0,0E0,0E0,0E0,0E0,0E0,0E0,0E0,0E0,0E0,0E0,0E0,0E0,0E0,0E0,0E0,0E0,0E0,0E0,0E0,0E0,0E0,0E0,0E0,0E0],"parents":[2147483647,0,0,1,1,2,2,3,3,4,4,5,5,6,6,7,7,8,8,9,9,10,10,11,11,12,12,13,13,14,14,15,15,16,16,17,17,18,18,19,19,20,20,21,21,22,22,23,23,24,24,25,25,26,26,27,27,28,28,31,31,32,32,33,33,37,37,38,38,39,39,40,40,41,41,42,42,43,43,44,44,46,46,47,47,48,48,49,49,50,50,51,51,54,54,55,55,56,56,57,57,58,58],"right_children":[2,4,6,8,10,12,14,16,18,20,22,24,26,28,30,32,34,36,38,40,42,44,46,48,50,52,54,56,58,-1,-1,60,62,64,-1,-1,-1,66,68,70,72,74,76,78,80,-1,82,84,86,88,90,92,-1,-1,94,96,98,100,102,-1,-1,-1,-1,-1,-1,-1,-1,-1,-1,-1,-1,-1,-1,-1,-1,-1,-1,-1,-1,-1,-1,-1,-1,-1,-1,-1,-1,-1,-1,-1,-1,-1,-1,-1,-1,-1,-1,-1,-1,-1,-1,-1,-1],"split_conditions":[-6.551274E-2,-1.169986E0,3.148118E-1,1.0251955E0,1.6605635E0,1.48193E0,1.745142E0,-1.13510735E-1,4.7851002E-1,-5.461403E-1,-6.345957E-2,1.6743778E0,-8.169484E-1,7.803214E-1,-1.0611996E-1,-6.064463E-1,-4.2720142E-1,-5.6674594E-1,-6.526085E-1,-6.60461E-1,-1.3324316E-2,-5.7161087E-1,-5.5962795E-1,-5.842631E-1,7.863342E-2,-1.6722435E0,1.0874015E0,-1.7387882E0,-2.712356E-1,-1.3241881E-1,1.9150327E-1,-1.4628835E-1,-4.8995173E-1,7.380353E-2,-1.1934671E-1,-1.0868161E-1,3.417778E-1,-1.574933E0,-4.6779567E-1,-5.72494E-1,-9.112851E-2,-1.7789224E0,-6.271848E-1,-1.1868247E0,-2.7552596E-1,-1.2975597E-1,1.4418337E-1,6.565903E-1,-6.9100296E-1,-4.6808597E-1,-5.3896916E-1,1.6090984E0,-1.5298994E-1,-1.0793266E-1,-5.038332E-1,5.5070764E-1,5.8255734E0,-1.1134329E0,3.5663133E0,-4.868738E-2,-1.542632E-1,-1.755536E-1,-1.4128959E-1,1.6108891E-1,-1.03318304E-1,-1.2456391E-1,2.0261623E-1,-1.6401404E-1,3.9578646E-2,-1.6323883E-2,-1.3083917E-1,-1.4654416E-1,7.419385E-2,1.1106578E-1,-1.279543E-1,-2.709888E-2,-9.25002E-2,2.7061787E-1,-1.10302195E-1,-1.6228674E-1,-5.872179E-2,4.427916E-1,5.1996283E-2,-1.16445325E-1,2.1224652E-1,-1.6690433E-1,-1.2636052E-1,2.5907707E-1,-1.20077126E-1,3.3788748E-2,-1.2098007E-1,1.3081333E-1,-9.684203E-2,3.0210119E-2,3.292554E-1,-1.0065089E-1,3.5647657E-2,-1.7198955E-1,-6.883498E-2,-1.0971143E-1,-1.6274194E-1,-1.06593594E-1,1.0226618E-1],"split_indices":[0,1,5,2,1,3,0,0,4,3,2,1,2,1,1,5,5,3,5,5,4,5,5,3,0,4,1,2,4,0,0,4,3,2,0,0,0,0,3,3,0,0,5,2,0,0,2,0,5,2,3,1,0,0,2,3,3,2,3,0,0,0,0,0,0,0,0,0,0,0,0,0,0,0,0,0,0,0,0,0,0,0,0,0,0,0,0,0,0,0,0,0,0,0,0,0,0,0,0,0,0,0,0],"split_type":[0,0,0,0,0,0,0,0,0,0,0,0,0,0,0,0,0,0,0,0,0,0,0,0,0,0,0,0,0,0,0,0,0,0,0,0,0,0,0,0,0,0,0,0,0,0,0,0,0,0,0,0,0,0,0,0,0,0,0,0,0,0,0,0,0,0,0,0,0,0,0,0,0,0,0,0,0,0,0,0,0,0,0,0,0,0,0,0,0,0,0,0,0,0,0,0,0,0,0,0,0,0,0],"sum_hessian":[2.8710107E3,1.356397E3,1.5146139E3,2.6805417E2,1.0883429E3,1.1514612E3,3.6315262E2,2.5089333E2,1.716085E1,1.0617594E3,2.6583508E1,1.1386334E3,1.2827791E1,3.5881677E2,4.335858E0,2.4657164E2,4.321682E0,2.374994E0,1.4785856E1,2.057439E2,8.5601544E2,2.015976E1,6.423746E0,1.054584E3,8.404942E1,8.46021E0,4.3675814E0,2.2654565E2,1.322711E2,2.4635987E0,1.872259E0,7.897643E1,1.675952E2,2.5006828E0,1.8209989E0,1.3321204E0,1.0428736E0,3.9917526E0,1.0794104E1,3.281583E1,1.7292807E2,2.4144255E2,6.145729E2,3.533616E0,1.6626144E1,2.391963E0,4.031783E0,3.4615998E0,1.0511224E3,5.7726316E0,7.8276794E1,3.4559863E0,5.0042233E0,1.4536512E0,2.91393E0,2.4071262E0,2.2413853E2,9.2174805E1,4.00963E1,1.6289455E1,6.268698E1,1.1741052E2,5.0184685E1,1.2575991E0,1.2430837E0,2.2348468E0,1.7569058E0,9.622874E0,1.1712296E0,1.8160828E1,1.4655004E1,1.708874E2,2.0406678E0,2.6171546E0,2.388254E2,3.0636866E1,5.8393604E2,2.047058E0,1.486558E0,8.758009E0,7.8681355E0,1.6953554E0,2.3364277E0,1.7592008E0,1.702399E0,5.5084145E1,9.9603827E2,4.0832505E0,1.6893812E0,6.7618685E0,7.151492E1,2.434932E0,1.0210543E0,1.242562E0,1.6713679E0,1.2042928E0,1.2028335E0,2.2090591E2,3.2326233E0,3.037208E1,6.1802723E1,3.738236E1,2.7139409E0],"tree_param":{"num_deleted":"0","num_feature":"6","num_nodes":"103","size_leaf_vector":"1"}},{"base_weights":[-3.805024E-1,-4.3035853E-1,-3.4748265E-1,-3.3399808E-1,-4.6893734E-1,-9.9197775E-2,-3.541603E-1,-2.3166457E-1,-3.9645857E-1,-4.7184172E-1,1.9469464E-2,1.7440362E-1,-2.2803527E-1,-4.7005808E-1,-3.3961466E-1,-7.353184E-2,-3.8156644E-1,-2.0466545E-1,-4.5285618E-1,-4.7548148E-1,-7.06284E-2,-2.6087523E-1,1.8959665E-1,-1.4669953E-1,4.3078497E-1,-2.5684629E-2,-4.0161484E-1,-8.924657E-2,-4.859173E-1,-3.0873567E-1,-4.0792933E-1,-1.0747867E-5,-4.49955E-1,-4.1353527E-1,5.7593007E-2,-4.3715376E-1,9.5741056E-2,-4.9436346E-1,-2.8018668E-1,-1.7419513E-1,-4.612737E-1,4.3208188E-1,-1.4468949E-1,-1.2919584E-1,4.1153945E-2,1.7301217E-1,-1.3792638E-1,3.0037808E-1,1.4625405E-1,-1.51322E-1,1.6379738E-1,7.437404E-2,-1.5047848E-1,-1.4248261E-1,2.9078758E-1,-4.904282E-1,6.9572683E-3,-2.7335405E-1,-3.6444592E-1,-1.909578E-1,-4.1576213E-1,-3.9491292E-2,1.1022329E-1,-1.5973885E-1,1.7224817E-3,-3.5547808E-2,-1.4573017E-1,-1.2973998E-1,1.9788988E-1,-3.572029E-2,-1.4757915E-1,1.14537336E-1,-6.1339553E-2,-1.6124216E-1,-1.1496843E-1,-1.1106736E-1,7.350917E-2,-1.3089618E-1,-1.5182094E-1,-1.0912489E-1,2.7244508E-1,-1.0094799E-1,1.3771088E-1,-6.4704224E-2,1.3414566E-1,-1.0004712E-1,5.0790463E-2,-1.0721734E-1,1.8474126E-1,-1.18404426E-1,-1.5351781E-1,-1.522926E-1,-7.6522425E-2,-1.3430081E-1,-9.332915E-2,-1.05722494E-1,8.582107E-2,-1.2713271E-1,-6.469156E-2],"categories":[],"categories_nodes":[],"categories_segments":[],"categories_sizes":[],"default_left":[0,0,0,0,0,0,0,0,0,0,0,0,0,0,0,0,0,0,0,0,0,0,0,0,0,0,0,0,0,0,0,0,0,0,0,0,0,0,0,0,0,0,0,0,0,0,0,0,0,0,0,0,0,0,0,0,0,0,0,0,0,0,0,0,0,0,0,0,0,0,0,0,0,0,0,0,0,0,0,0,0,0,0,0,0,0,0,0,0,0,0,0,0,0,0,0,0,0,0],"id":6,"left_children":[1,3,5,7,9,11,13,15,17,19,21,23,25,27,29,31,33,35,37,39,41,43,-1,45,47,49,51,53,55,57,59,61,63,65,67,69,71,73,75,-1,77,79,-1,-1,-1,81,-1,-1,83,85,-1,-1,-1,-1,87,89,-1,91,93,95,97,-1,-1,-1,-1,-1,-1,-1,-1,-1,-1,-1,-1,-1,-1,-1,-1,-1,-1,-1,-1,-1,-1,-1,-1,-1,-1,-1,-1,-1,-1,-1,-1,-1,-1,-1,-1,-1,-1],"loss_changes":[4.6101685E0,4.110153E0,2.857193E0,2.027794E0,1.168335E0,1.6993186E0,2.7036438E0,3.008388E0,2.119564E0,1.1527252E0,1.159264E0,1.3506465E0,1.1291251E0,1.084713E0,3.064972E0,1.7594483E0,9.4368935E-1,3.415118E0,9.8830795E-1,9.3481445E-1,1.9628799E0,3.753873E-1,0E0,8.491093E-1,1.3062607E0,1.2351938E0,1.2538741E0,1.4122941E0,4.2267227E-1,1.9619217E0,7.155838E-1,2.6689985E0,3.936398E-1,1.2466412E0,1.8559583E0,4.1896105E-1,1.9580197E0,3.950405E-1,1.6407626E0,0E0,5.7725525E-1,1.9762709E0,0E0,0E0,0E0,8.147117E-1,0E0,0E0,8.7429583E-1,8.705981E-1,0E0,0E0,0E0,0E0,1.2731841E0,1.6012573E-1,0E0,2.6269913E0,1.6510468E0,1.4985139E0,6.3129425E-1,0E0,0E0,0E0,0E0,0E0,0E0,0E0,0E0,0E0,0E0,0E0,0E0,0E0,0E0,0E0,0E0,0E0,0E0,0E0,0E0,0E0,0E0,0E0,0E0,0E0,0E0,0E0,0E0,0E0,0E0,0E0,0E0,0E0,0E0,0E0,0E0,0E0,0E0],"parents":[2147483647,0,0,1,1,2,2,3,3,4,4,5,5,6,6,7,7,8,8,9,9,10,10,11,11,12,12,13,13,14,14,15,15,16,16,17,17,18,18,19,19,20,20,21,21,23,23,24,24,25,25,26,26,27,27,28,28,29,29,30,30,31,31,32,32,33,33,34,34,35,35,36,36,37,37,38,38,40,40,41,41,45,45,48,48,49,49,54,54,55,55,57,57,58,58,59,59,60,60],"right_children":[2,4,6,8,10,12,14,16,18,20,22,24,26,28,30,32,34,36,38,40,42,44,-1,46,48,50,52,54,56,58,60,62,64,66,68,70,72,74,76,-1,78,80,-1,-1,-1,82,-1,-1,84,86,-1,-1,-1,-1,88,90,-1,92,94,96,98,-1,-1,-1,-1,-1,-1,-1,-1,-1,-1,-1,-1,-1,-1,-1,-1,-1,-1,-1,-1,-1,-1,-1,-1,-1,-1,-1,-1,-1,-1,-1,-1,-1,-1,-1,-1,-1,-1],"split_conditions":[-4.594362E-1,-6.1863476E-1,-1.7959304E0,-5.7196957E-1,2.6704879E0,8.218801E-1,-5.780635E-1,-7.53751E-2,-1.4061475E0,1.8221586E0,1.4924939E0,6.161793E-1,2.3970449E-1,-4.511621E-1,3.7346306E-1,2.7821562E-1,-5.7376343E-1,-1.0446683E0,-6.3270295E-1,-1.4652287E0,-4.3498638E-1,4.415188E-2,1.8959665E-1,-2.4848056E-1,1.0174752E0,1.7978446E0,-3.1967118E-1,-6.57486E-1,1.9454584E0,3.5283726E-1,-1.1914673E0,-8.8980067E-1,-5.732289E-1,-1.6382994E-1,-6.4629054E-1,-5.088787E-1,6.828515E-1,5.836463E-1,1.3295712E0,-1.7419513E-1,-8.213741E-2,-1.5888376E0,-1.4468949E-1,-1.2919584E-1,4.1153945E-2,-7.805707E-1,-1.3792638E-1,3.0037808E-1,2.0501633E0,1.2102891E0,1.6379738E-1,7.437404E-2,-1.5047848E-1,-1.4248261E-1,-7.5123125E-1,-1.2500706E0,6.9572683E-3,-1.4061475E0,8.17755E-1,1.9396887E0,1.7462159E0,-3.9491292E-2,1.1022329E-1,-1.5973885E-1,1.7224817E-3,-3.5547808E-2,-1.4573017E-1,-1.2973998E-1,1.9788988E-1,-3.572029E-2,-1.4757915E-1,1.14537336E-1,-6.1339553E-2,-1.6124216E-1,-1.1496843E-1,-1.1106736E-1,7.350917E-2,-1.3089618E-1,-1.5182094E-1,-1.0912489E-1,2.7244508E-1,-1.0094799E-1,1.3771088E-1,-6.4704224E-2,1.3414566E-1,-1.0004712E-1,5.0790463E-2,-1.0721734E-1,1.8474126E-1,-1.18404426E-1,-1.5351781E-1,-1.522926E-1,-7.6522425E-2,-1.3430081E-1,-9.332915E-2,-1.05722494E-1,8.582107E-2,-1.2713271E-1,-6.469156E-2],"split_indices":[3,5,2,3,2,1,5,2,0,0,4,3,0,3,3,1,3,1,5,0,2,0,0,3,3,1,3,1,4,0,0,1,3,4,5,4,4,1,2,0,1,4,0,0,0,1,0,0,3,5,0,0,0,0,5,0,0,0,0,3,1,0,0,0,0,0,0,0,0,0,0,0,0,0,0,0,0,0,0,0,0,0,0,0,0,0,0,0,0,0,0,0,0,0,0,0,0,0,0],"split_type":[0,0,0,0,0,0,0,0,0,0,0,0,0,0,0,0,0,0,0,0,0,0,0,0,0,0,0,0,0,0,0,0,0,0,0,0,0,0,0,0,0,0,0,0,0,0,0,0,0,0,0,0,0,0,0,0,0,0,0,0,0,0,0,0,0,0,0,0,0,0,0,0,0,0,0,0,0,0,0,0,0,0,0,0,0,0,0,0,0,0,0,0,0,0,0,0,0,0,0],"sum_hessian":[2.890286E3,1.1467646E3,1.7435214E3,3.3061832E2,8.1614636E2,4.607923E1,1.6974421E3,1.2709628E2,2.0352203E2,8.1135547E2,4.7909026E0,1.4638661E1,3.144057E1,1.8578816E2,1.5116539E3,6.257545E1,6.452083E1,4.7299194E1,1.5622284E2,8.038776E2,7.477805E0,3.6804762E0,1.1104267E0,6.688944E0,7.949717E0,1.5047222E1,1.6393349E1,7.6929264E0,1.7809525E2,1.0448771E3,4.667769E2,5.3187218E1,9.388233E0,6.01971E1,4.3237305E0,2.640716E1,2.0892035E1,1.24444984E2,3.177785E1,9.0929504E1,7.129481E2,3.344315E0,4.13349E0,2.5226347E0,1.1578412E0,3.5306067E0,3.1583374E0,1.8072513E0,6.1424656E0,1.29389305E1,2.1082914E0,1.989403E0,1.4403946E1,3.6940804E0,3.9988458E0,1.7656747E2,1.5277648E0,6.4264154E2,4.022355E2,1.7148085E1,4.496288E2,3.9631256E1,1.3555962E1,7.806364E0,1.5818697E0,1.2358265E1,4.7838837E1,2.5388086E0,1.7849219E0,4.345677E0,2.2061483E1,1.0559092E1,1.0332943E1,8.689965E1,3.7545334E1,2.737932E1,4.398529E0,4.6478537E2,2.4816275E2,1.3400751E0,2.0042398E0,1.2059506E0,2.324656E0,2.9169853E0,3.2254806E0,8.225389E0,4.7135415E0,1.3022225E0,2.6966233E0,3.568281E1,1.4088466E2,4.457302E1,5.9806854E2,1.5423677E2,2.4799873E2,1.3007074E1,4.1410117E0,4.312429E2,1.8385914E1],"tree_param":{"num_deleted":"0","num_feature":"6","num_nodes":"99","size_leaf_vector":"1"}},{"base_weights":[-3.87942E-1,-4.793819E-1,-3.749976E-1,-1.7413487E-1,-4.0237215E-1,-3.6600783E-1,-4.8348454E-1,-2.4857603E-1,-4.5795932E-1,-3.73271E-1,-2.495086E-1,-4.8788077E-1,3.135817E-2,1.1408478E-1,-3.932207E-1,-4.094458E-1,-1.751279E-1,-3.8042223E-1,-2.552021E-1,3.5151917E-1,-2.9216415E-1,-1.6004522E-1,-4.1485754E-1,6.462428E-1,-1.5798853E-1,-1.6834092E-1,-2.8134015E-1,-4.2984867E-1,1.3380684E-1,-3.4973416E-1,-4.059579E-1,-2.8748143E-2,-4.2983782E-1,-1.3484831E-1,7.516088E-1,1.8504626E-1,-3.2604882E-1,-2.3110108E-1,-4.722272E-1,2.9272968E-1,-1.2136117E-1,4.4192534E-2,-1.07485205E-1,-1.4075302E-1,-7.668923E-2,-1.20731585E-1,1.9924225E-1,-1.3704045E-1,-9.899501E-2,-7.389648E-2,-1.2485257E-1,-3.0092353E-2,2.4346855E-1,-1.3511086E-1,8.621315E-3,2.988271E-1,-5.6127426E-3,1.3250476E-1,-1.3048607E-1,-1.0661605E-1,1.2427448E-2,-1.2229882E-1,2.9354522E-1,-1.4594908E-1,2.7940685E-2],"categories":[],"categories_nodes":[],"categories_segments":[],"categories_sizes":[],"default_left":[0,0,0,0,0,0,0,0,0,0,0,0,0,0,0,0,0,0,0,0,0,0,0,0,0,0,0,0,0,0,0,0,0,0,0,0,0,0,0,0,0,0,0,0,0,0,0,0,0,0,0,0,0,0,0,0,0,0,0,0,0,0,0,0,0],"id":7,"left_children":[1,3,5,-1,7,9,11,13,15,17,19,21,-1,23,25,27,-1,29,31,33,35,-1,37,39,-1,-1,41,43,45,47,49,51,53,-1,55,57,59,61,63,-1,-1,-1,-1,-1,-1,-1,-1,-1,-1,-1,-1,-1,-1,-1,-1,-1,-1,-1,-1,-1,-1,-1,-1,-1,-1],"loss_changes":[3.2355652E0,2.5234375E0,2.292694E0,0E0,1.6327362E0,1.8890076E0,5.438614E-1,3.0047247E0,6.695633E-1,1.763031E0,3.7045307E0,4.094696E-1,0E0,6.089983E0,6.041384E-1,1.2855053E0,0E0,1.4842529E0,5.0834284E0,3.4669943E0,2.1903963E0,0E0,7.059345E-1,3.7398915E0,0E0,0E0,9.217825E-1,6.1330605E-1,1.6246428E0,1.8576508E0,1.7348328E0,3.5194807E0,6.9723797E-1,0E0,1.315438E0,1.6832192E0,1.3446293E0,4.745752E0,5.1292133E-1,0E0,0E0,0E0,0E0,0E0,0E0,0E0,0E0,0E0,0E0,0E0,0E0,0E0,0E0,0E0,0E0,0E0,0E0,0E0,0E0,0E0,0E0,0E0,0E0,0E0,0E0],"parents":[2147483647,0,0,1,1,2,2,4,4,5,5,6,6,7,7,8,8,9,9,10,10,11,11,13,13,14,14,15,15,17,17,18,18,19,19,20,20,22,22,23,23,26,26,27,27,28,28,29,29,30,30,31,31,32,32,34,34,35,35,36,36,37,37,38,38],"right_children":[2,4,6,-1,8,10,12,14,16,18,20,22,-1,24,26,28,-1,30,32,34,36,-1,38,40,-1,-1,42,44,46,48,50,52,54,-1,56,58,60,62,64,-1,-1,-1,-1,-1,-1,-1,-1,-1,-1,-1,-1,-1,-1,-1,-1,-1,-1,-1,-1,-1,-1,-1,-1,-1,-1],"split_conditions":[-5.654018E-1,-8.2940537E-1,1.499729E0,-1.7413487E-1,-6.4365935E-1,1.5806205E0,1.7462159E0,-3.4014188E-2,1.5738104E-1,1.6605635E0,-5.5312973E-1,1.8867315E0,3.135817E-2,-5.796396E-1,-6.7976284E-1,5.291636E-2,-1.751279E-1,-1.3398154E-1,3.2161295E-1,-1.3443846E0,-1.2805725E0,-1.6004522E-1,-5.4456854E-1,1.6653188E0,-1.5798853E-1,-1.6834092E-1,-6.731235E-1,7.578597E-1,-5.761246E-1,-7.884912E-1,-1.507519E0,2.8780377E0,8.514025E-1,-1.3484831E-1,5.525113E-1,-3.0375153E-1,1.0174752E0,-5.547856E-1,2.3856628E0,2.9272968E-1,-1.2136117E-1,4.4192534E-2,-1.07485205E-1,-1.4075302E-1,-7.668923E-2,-1.20731585E-1,1.9924225E-1,-1.3704045E-1,-9.899501E-2,-7.389648E-2,-1.2485257E-1,-3.0092353E-2,2.4346855E-1,-1.3511086E-1,8.621315E-3,2.988271E-1,-5.6127426E-3,1.3250476E-1,-1.3048607E-1,-1.0661605E-1,1.2427448E-2,-1.2229882E-1,2.9354522E-1,-1.4594908E-1,2.7940685E-2],"split_indices":[3,0,2,0,5,0,1,0,1,1,3,2,0,1,5,1,0,1,0,4,1,0,5,4,0,0,5,2,3,4,2,3,2,0,2,5,3,5,5,0,0,0,0,0,0,0,0,0,0,0,0,0,0,0,0,0,0,0,0,0,0,0,0,0,0],"split_type":[0,0,0,0,0,0,0,0,0,0,0,0,0,0,0,0,0,0,0,0,0,0,0,0,0,0,0,0,0,0,0,0,0,0,0,0,0,0,0,0,0,0,0,0,0,0,0,0,0,0,0,0,0,0,0,0,0,0,0,0,0,0,0,0,0],"sum_hessian":[2.8844468E3,3.5322427E2,2.5312227E3,1.4992511E2,2.0329916E2,2.3415632E3,1.8965924E2,5.5424625E1,1.4787454E2,2.2020708E3,1.3949243E2,1.884208E2,1.2384324E0,1.5863098E1,3.9561527E1,1.0978996E2,3.8084583E1,2.0742168E3,1.2785409E2,8.764033E0,1.307284E2,1.1210508E2,7.631572E1,8.66094E0,7.2021585E0,1.42135935E1,2.5347935E1,1.0601704E2,3.7729204E0,9.487411E2,1.1254757E3,5.6175148E1,7.167894E1,2.8781826E0,5.885851E0,8.371291E0,1.2235711E2,1.935368E1,5.696204E1,6.6476407E0,2.013299E0,3.7184167E0,2.1629519E1,8.5111E1,2.0906042E1,1.9959164E0,1.777004E0,1.4431189E2,8.044292E2,6.921188E1,1.0562638E3,5.257828E1,3.5968676E0,6.862434E1,3.0545979E0,4.2453747E0,1.6404762E0,6.1239963E0,2.2472947E0,1.1334117E2,9.015939E0,1.7467014E1,1.8866656E0,5.569578E1,1.2662598E0],"tree_param":{"num_deleted":"0","num_feature":"6","num_nodes":"65","size_leaf_vector":"1"}},{"base_weights":[2.963322E-1,3.5759664E-1,2.2269772E-1,-1.6902182E-1,3.646106E-1,2.274651E-1,-3.5151982E-1,-3.4176E-1,1.5289688E-1,6.938648E-2,3.7390468E-1,3.6046416E-1,2.0803948E-1,-4.6594128E-1,2.6286244E-2,-4.18218E-1,-4.697592E-2,7.396335E-1,-2.3807786E-1,-1.0553264E-1,3.0506054E-1,3.5867214E-1,5.151313E-1,1.8909667E-1,4.9974048E-1,4.3662753E-2,2.3160328E-1,1.4207675E-2,-1.651355E-1,1.22350045E-1,-1.1130009E-1,-1.4396563E-1,2.8940314E-2,1.6970755E-1,-1.2971899E-1,3.193243E-1,1.6035898E-2,-1.5787365E-1,1.969638E-1,1.7910962E-1,-3.6322308E-1,7.8607535E-1,1.8739465E-1,4.386199E-1,3.3440942E-1,5.586135E-1,-6.348579E-2,9.03365E-2,4.5223922E-1,6.308141E-1,1.1276396E-1,6.693667E-1,1.5898112E-2,2.4259734E-1,-1.9144021E-1,-1.0419851E-1,1.3278355E-1,-1.5415841E-1,1.4871757E-1,2.918901E-1,3.3928197E-2,8.998915E-3,1.6561459E-1,6.6009425E-2,1.6232774E-1,2.0036304E-1,9.766278E-2,1.4009388E-1,2.806961E-1,-1.549516E-1,5.563275E-2,-1.02140956E-1,4.6296682E-2,7.2993405E-2,3.4203485E-1,2.9856777E-1,1.4243253E-1,1.02562495E-1,-1.3498577E-1,3.2602978E-1,-4.4422675E-2,1.401493E-2,-1.0603499E-1,-9.456572E-2,7.436047E-2,-9.1095924E-2,1.08693354E-1],"categories":[],"categories_nodes":[],"categories_segments":[],"categories_sizes":[],"default_left":[0,0,0,0,0,0,0,0,0,0,0,0,0,0,0,0,0,0,0,0,0,0,0,0,0,0,0,0,0,0,0,0,0,0,0,0,0,0,0,0,0,0,0,0,0,0,0,0,0,0,0,0,0,0,0,0,0,0,0,0,0,0,0,0,0,0,0,0,0,0,0,0,0,0,0,0,0,0,0,0,0,0,0,0,0,0,0],"id":8,"left_children":[1,3,5,7,9,11,13,15,17,19,21,23,25,27,29,31,33,35,37,39,41,43,45,47,49,51,53,-1,-1,-1,-1,-1,-1,-1,-1,-1,-1,-1,-1,55,57,59,61,63,65,67,69,71,73,75,77,79,81,83,85,-1,-1,-1,-1,-1,-1,-1,-1,-1,-1,-1,-1,-1,-1,-1,-1,-1,-1,-1,-1,-1,-1,-1,-1,-1,-1,-1,-1,-1,-1,-1,-1],"loss_changes":[1.5561127E1,7.045944E0,4.397667E0,1.4722862E0,5.0949554E0,3.9679718E0,5.9064984E-1,3.6188996E-1,2.3802726E0,2.430989E0,3.707138E0,4.632864E0,5.2878265E0,4.7387528E-1,7.6625735E-1,4.689095E-1,1.3338733E0,8.5366464E-1,2.0270603E0,2.5694168E0,1.2703092E0,3.0273438E0,4.409256E0,2.3087678E0,5.4401474E0,2.9900172E0,5.609329E0,0E0,0E0,0E0,0E0,0E0,0E0,0E0,0E0,0E0,0E0,0E0,0E0,2.4970539E0,2.6161146E0,4.6974707E-1,1.2138326E0,8.342545E0,3.5068054E0,5.152977E0,1.5672884E0,1.8991194E0,3.2325883E0,4.1303253E0,3.8551257E0,2.6566074E0,1.9107133E0,3.507019E0,2.0272899E0,0E0,0E0,0E0,0E0,0E0,0E0,0E0,0E0,0E0,0E0,0E0,0E0,0E0,0E0,0E0,0E0,0E0,0E0,0E0,0E0,0E0,0E0,0E0,0E0,0E0,0E0,0E0,0E0,0E0,0E0,0E0,0E0],"parents":[2147483647,0,0,1,1,2,2,3,3,4,4,5,5,6,6,7,7,8,8,9,9,10,10,11,11,12,12,13,13,14,14,15,15,16,16,17,17,18,18,19,19,20,20,21,21,22,22,23,23,24,24,25,25,26,26,39,39,40,40,41,41,42,42,43,43,44,44,45,45,46,46,47,47,48,48,49,49,50,50,51,51,52,52,53,53,54,54],"right_children":[2,4,6,8,10,12,14,16,18,20,22,24,26,28,30,32,34,36,38,40,42,44,46,48,50,52,54,-1,-1,-1,-1,-1,-1,-1,-1,-1,-1,-1,-1,56,58,60,62,64,66,68,70,72,74,76,78,80,82,84,86,-1,-1,-1,-1,-1,-1,-1,-1,-1,-1,-1,-1,-1,-1,-1,-1,-1,-1,-1,-1,-1,-1,-1,-1,-1,-1,-1,-1,-1,-1,-1,-1],"split_conditions":[-3.4475696E-1,-1.7430857E0,5.8255734E0,-5.713354E-1,-5.8148694E-1,-5.186006E-1,7.890386E-1,1.575223E0,-5.654018E-1,-3.0577245E-1,1.5949757E0,-9.474501E-1,-8.57126E-1,3.3555895E-1,9.6412677E-1,4.2180013E-2,1.9819489E0,1.2044134E0,-1.6434658E-1,-1.4652287E0,-1.1380292E0,-5.609434E-1,7.393378E-2,-5.823879E-1,1.3518676E-1,-1.6233443E0,1.6220863E0,1.4207675E-2,-1.651355E-1,1.22350045E-1,-1.1130009E-1,-1.4396563E-1,2.8940314E-2,1.6970755E-1,-1.2971899E-1,3.193243E-1,1.6035898E-2,-1.5787365E-1,1.969638E-1,-6.0995847E-1,2.0259526E0,1.5982754E0,-4.862871E-2,-6.271848E-1,-1.7195579E0,1.1461947E0,-5.946185E-1,-3.1318724E-1,1.6268257E0,-6.3684464E-1,8.530336E-2,-1.0271215E0,1.1557184E0,-1.2953075E0,6.7757386E-1,-1.0419851E-1,1.3278355E-1,-1.5415841E-1,1.4871757E-1,2.918901E-1,3.3928197E-2,8.998915E-3,1.6561459E-1,6.6009425E-2,1.6232774E-1,2.0036304E-1,9.766278E-2,1.4009388E-1,2.806961E-1,-1.549516E-1,5.563275E-2,-1.02140956E-1,4.6296682E-2,7.2993405E-2,3.4203485E-1,2.9856777E-1,1.4243253E-1,1.02562495E-1,-1.3498577E-1,3.2602978E-1,-4.4422675E-2,1.401493E-2,-1.0603499E-1,-9.456572E-2,7.436047E-2,-9.1095924E-2,1.08693354E-1],"split_indices":[3,1,3,3,3,5,0,4,3,0,4,4,0,1,0,2,4,4,5,0,4,3,1,5,3,0,0,0,0,0,0,0,0,0,0,0,0,0,0,2,4,0,1,5,0,2,5,3,1,5,2,1,5,1,1,0,0,0,0,0,0,0,0,0,0,0,0,0,0,0,0,0,0,0,0,0,0,0,0,0,0,0,0,0,0,0,0],"split_type":[0,0,0,0,0,0,0,0,0,0,0,0,0,0,0,0,0,0,0,0,0,0,0,0,0,0,0,0,0,0,0,0,0,0,0,0,0,0,0,0,0,0,0,0,0,0,0,0,0,0,0,0,0,0,0,0,0,0,0,0,0,0,0,0,0,0,0,0,0,0,0,0,0,0,0,0,0,0,0,0,0,0,0,0,0,0,0],"sum_hessian":[3.4661143E3,1.8898718E3,1.5762423E3,2.4536629E1,1.8653352E3,1.5638624E3,1.2379916E1,1.5928127E1,8.608501E0,5.7189426E1,1.8081459E3,1.9706752E2,1.3667949E3,9.3230715E0,3.0568452E0,1.2315212E1,3.612916E0,3.0858266E0,5.5226746E0,3.3142796E1,2.4046633E1,1.6353036E3,1.7284224E2,8.941177E1,1.0765575E2,1.7172516E2,1.1950697E3,1.3801155E0,7.942956E0,1.5457684E0,1.5110768E0,1.1057915E1,1.2572972E0,1.2145431E0,2.398373E0,1.7203429E0,1.3654838E0,4.4886146E0,1.0340601E0,1.5892758E1,1.7250038E1,3.6097026E0,2.043693E1,3.767621E2,1.2585415E3,1.6079343E2,1.2048813E1,6.5988785E1,2.342299E1,7.9946724E1,2.7709028E1,6.314436E0,1.6541072E2,1.1652146E3,2.9855076E1,5.1952677E0,1.0697491E1,1.5018006E1,2.2320313E0,2.476269E0,1.1334336E0,1.5031175E1,5.405755E0,1.2125503E2,2.5550706E2,3.0672651E1,1.2278689E3,1.3115637E2,2.9637041E1,3.891619E0,8.157194E0,7.974781E0,5.8014004E1,1.9004494E1,4.418495E0,2.2356817E1,5.7589905E1,1.9970472E1,7.7385564E0,3.9619365E0,2.3524995E0,1.5347806E2,1.1932661E1,1.0356783E1,1.1548579E3,2.5200134E1,4.6549416E0],"tree_param":{"num_deleted":"0","num_feature":"6","num_nodes":"87","size_leaf_vector":"1"}},{"base_weights":[6.1202663E-1,5.7927686E-1,6.872778E-1,9.1065E-1,5.6893796E-1,7.860744E-1,6.4656484E-1,1.0899823E0,3.1778136E-1,7.112119E-1,5.546243E-1,4.6743605E-1,8.722293E-1,6.8076754E-1,4.1452008E-1,1.1179371E0,-1.5872819E-3,-7.2899915E-2,6.165527E-1,5.680341E-1,8.2546234E-1,4.865291E-1,5.826626E-1,1.2053705E0,3.5479414E-1,3.086036E-1,9.046398E-1,6.2528026E-1,8.084696E-1,2.369469E-2,5.016689E-1,1.1507396E0,5.5946916E-1,3.737023E-1,-1.6056404E-1,7.5021213E-1,-1.0258447E-1,4.528034E-1,7.562855E-1,8.424492E-1,-1.1052787E-1,5.110779E-1,1.6998361E-1,5.901715E-1,1.6250934E-1,4.0884927E-1,2.29284E-2,2.0948257E-1,8.2496244E-1,3.4947105E-2,3.968127E-1,9.410945E-1,5.07783E-1,4.7672164E-1,7.2230476E-1,8.728877E-1,4.5086443E-1,6.060033E-1,-2.3687038E-1,3.792859E-1,4.2599058E-1,3.57364E-1,1.9631879E-1,-1.22446984E-1,2.929221E-1,-1.4919398E-2,3.179815E-1,3.8419412E-3,2.6118654E-1,-7.772344E-2,1.4672694E-1,2.571011E-1,-1.4527836E-1,3.7209222E-1,2.3684941E-1,2.0384084E-1,1.4003031E-1,-6.516243E-2,1.03179365E-1,1.7305107E-1,2.2990301E-1,2.4595048E-1,-8.0418065E-2,9.773332E-2,-8.755268E-2,1.3011165E-1,3.1124046E-1,-1.2036417E-1,1.0258331E-1,2.8723043E-1,1.4238478E-2,3.28053E-2,2.3985676E-1,1.2640078E-1,2.6914823E-1,2.0083354E-1,2.8743762E-1,2.7017513E-1,6.431745E-2,2.688725E-1,4.0815074E-2,3.8188454E-2,2.4831574E-1,1.2731361E-1,-1.1685071E-1,2.8956462E-2,1.5699117E-1],"categories":[],"categories_nodes":[],"categories_segments":[],"categories_sizes":[],"default_left":[0,0,0,0,0,0,0,0,0,0,0,0,0,0,0,0,0,0,0,0,0,0,0,0,0,0,0,0,0,0,0,0,0,0,0,0,0,0,0,0,0,0,0,0,0,0,0,0,0,0,0,0,0,0,0,0,0,0,0,0,0,0,0,0,0,0,0,0,0,0,0,0,0,0,0,0,0,0,0,0,0,0,0,0,0,0,0,0,0,0,0,0,0,0,0,0,0,0,0,0,0,0,0,0,0,0,0],"id":9,"left_children":[1,3,5,7,9,11,13,15,17,19,21,23,25,27,29,31,-1,33,35,37,39,41,43,45,47,49,51,53,55,57,59,61,63,65,-1,67,-1,69,71,73,-1,75,77,79,81,-1,-1,83,85,87,-1,89,91,93,95,97,99,101,103,-1,105,-1,-1,-1,-1,-1,-1,-1,-1,-1,-1,-1,-1,-1,-1,-1,-1,-1,-1,-1,-1,-1,-1,-1,-1,-1,-1,-1,-1,-1,-1,-1,-1,-1,-1,-1,-1,-1,-1,-1,-1,-1,-1,-1,-1,-1,-1],"loss_changes":[9.121826E0,8.724915E0,4.1817627E0,8.155273E0,4.938843E0,8.806351E0,6.3159485E0,1.873024E0,2.3772902E0,3.3892212E0,4.2683105E0,5.6894016E0,4.526016E0,4.6176147E0,3.712757E0,4.455948E-1,0E0,2.1724658E0,1.7206588E0,1.997757E0,2.9259644E0,5.3635406E0,5.2158813E0,1.5541162E0,4.2859774E0,4.344493E0,3.1133118E0,6.9839935E0,4.572647E0,3.3280854E0,4.619129E0,3.2983398E-1,2.5147161E0,1.6357746E0,0E0,9.072037E-1,0E0,1.9197226E0,5.3466187E0,1.7061081E0,0E0,4.535919E0,3.5754967E0,3.442871E0,8.97711E0,0E0,0E0,3.0798123E0,8.0284595E-1,1.9430321E0,0E0,3.257141E0,2.5924792E0,4.3679504E0,3.1681976E0,3.1190186E0,4.781962E0,6.131134E-1,1.7013139E0,0E0,2.6044455E0,0E0,0E0,0E0,0E0,0E0,0E0,0E0,0E0,0E0,0E0,0E0,0E0,0E0,0E0,0E0,0E0,0E0,0E0,0E0,0E0,0E0,0E0,0E0,0E0,0E0,0E0,0E0,0E0,0E0,0E0,0E0,0E0,0E0,0E0,0E0,0E0,0E0,0E0,0E0,0E0,0E0,0E0,0E0,0E0,0E0,0E0],"parents":[2147483647,0,0,1,1,2,2,3,3,4,4,5,5,6,6,7,7,8,8,9,9,10,10,11,11,12,12,13,13,14,14,15,15,17,17,18,18,19,19,20,20,21,21,22,22,23,23,24,24,25,25,26,26,27,27,28,28,29,29,30,30,31,31,32,32,33,33,35,35,37,37,38,38,39,39,41,41,42,42,43,43,44,44,47,47,48,48,49,49,51,51,52,52,53,53,54,54,55,55,56,56,57,57,58,58,60,60],"right_children":[2,4,6,8,10,12,14,16,18,20,22,24,26,28,30,32,-1,34,36,38,40,42,44,46,48,50,52,54,56,58,60,62,64,66,-1,68,-1,70,72,74,-1,76,78,80,82,-1,-1,84,86,88,-1,90,92,94,96,98,100,102,104,-1,106,-1,-1,-1,-1,-1,-1,-1,-1,-1,-1,-1,-1,-1,-1,-1,-1,-1,-1,-1,-1,-1,-1,-1,-1,-1,-1,-1,-1,-1,-1,-1,-1,-1,-1,-1,-1,-1,-1,-1,-1,-1,-1,-1,-1,-1,-1],"split_conditions":[-5.2264137E-3,-5.8148694E-1,-6.2547845E-1,4.273239E-1,-1.4747589E0,-1.4487576E0,1.0683743E0,9.0276873E-1,9.855766E-1,-5.8471495E-1,-6.57486E-1,-1.1477833E0,-8.8980067E-1,1.3256197E0,5.690167E-2,2.0259526E0,-1.5872819E-3,-9.043471E-1,1.6396381E0,-1.569536E0,-3.6179152E-1,-7.290949E-1,1.7707365E0,-1.7191982E-2,3.5663133E0,1.5143548E0,4.2180013E-2,-3.1532285E-1,7.482606E-1,-1.61502E-1,9.919241E-2,-5.8045125E-1,-6.676955E-1,-1.1948351E0,-1.6056404E-1,-5.842631E-1,-1.0258447E-1,-1.4877945E0,-5.987346E-1,-1.5322069E0,-1.1052787E-1,-6.571164E-1,-5.5312973E-1,1.7407491E0,-5.5312973E-1,4.0884927E-1,2.29284E-2,2.221043E0,3.5283726E-1,-3.6179152E-1,3.968127E-1,1.7978446E0,1.1025674E-1,1.4924939E0,4.2424598E-1,1.0466664E0,-2.4840854E-1,-3.068916E-1,-3.6965168E-1,3.792859E-1,-4.1240597E-1,3.57364E-1,1.9631879E-1,-1.22446984E-1,2.929221E-1,-1.4919398E-2,3.179815E-1,3.8419412E-3,2.6118654E-1,-7.772344E-2,1.4672694E-1,2.571011E-1,-1.4527836E-1,3.7209222E-1,2.3684941E-1,2.0384084E-1,1.4003031E-1,-6.516243E-2,1.03179365E-1,1.7305107E-1,2.2990301E-1,2.4595048E-1,-8.0418065E-2,9.773332E-2,-8.755268E-2,1.3011165E-1,3.1124046E-1,-1.2036417E-1,1.0258331E-1,2.8723043E-1,1.4238478E-2,3.28053E-2,2.3985676E-1,1.2640078E-1,2.6914823E-1,2.0083354E-1,2.8743762E-1,2.7017513E-1,6.431745E-2,2.688725E-1,4.0815074E-2,3.8188454E-2,2.4831574E-1,1.2731361E-1,-1.1685071E-1,2.8956462E-2,1.5699117E-1],"split_indices":[5,3,4,0,1,2,1,1,0,5,1,1,1,5,3,4,0,1,0,1,3,1,4,3,3,0,2,0,1,3,5,5,5,1,0,3,0,2,5,2,0,4,3,2,3,0,0,3,0,3,0,1,3,4,3,0,2,4,2,0,4,0,0,0,0,0,0,0,0,0,0,0,0,0,0,0,0,0,0,0,0,0,0,0,0,0,0,0,0,0,0,0,0,0,0,0,0,0,0,0,0,0,0,0,0,0,0],"split_type":[0,0,0,0,0,0,0,0,0,0,0,0,0,0,0,0,0,0,0,0,0,0,0,0,0,0,0,0,0,0,0,0,0,0,0,0,0,0,0,0,0,0,0,0,0,0,0,0,0,0,0,0,0,0,0,0,0,0,0,0,0,0,0,0,0,0,0,0,0,0,0,0,0,0,0,0,0,0,0,0,0,0,0,0,0,0,0,0,0,0,0,0,0,0,0,0,0,0,0,0,0,0,0,0,0,0,0],"sum_hessian":[3.8618848E3,2.696883E3,1.1650016E3,7.896247E1,2.6179207E3,3.34639E2,8.3036255E2,5.998084E1,1.8981634E1,2.348528E2,2.3830679E3,7.259106E1,2.6204794E2,7.22007E2,1.0835552E2,5.8467865E1,1.5129739E0,8.553219E0,1.0428414E1,1.0688153E2,1.2797127E2,7.00397E2,1.6826709E3,8.328546E0,6.426251E1,1.48214655E1,2.4722649E2,5.0742447E2,2.1458252E2,1.998831E1,8.836722E1,5.42225E1,4.2453656E0,4.448025E0,4.105194E0,9.34289E0,1.0855249E0,6.841146E1,3.847007E1,1.26466255E2,1.5050137E0,6.494187E2,5.0978264E1,1.6527289E3,2.994202E1,7.127287E0,1.2012591E0,5.019473E1,1.4067783E1,1.2486455E1,2.335011E0,2.251712E2,2.2055277E1,2.0280855E2,3.0461594E2,1.8060744E2,3.3975094E1,5.769331E0,1.4218979E1,6.5595865E0,8.1807625E1,4.883993E1,5.382566E0,1.2847619E0,2.9606037E0,3.3243227E0,1.1237026E0,1.466738E0,7.8761516E0,3.0201924E0,6.5391266E1,3.5867237E1,2.6028326E0,1.2220633E1,1.1424563E2,1.3230118E2,5.171175E2,1.572566E1,3.52526E1,1.5404083E3,1.1232054E2,1.1492704E1,1.8449314E1,4.102751E1,9.167217E0,6.0217314E0,8.046052E0,5.031352E0,7.455103E0,2.2105774E2,4.113468E0,9.90404E0,1.2151236E1,1.8097084E2,2.18377E1,2.5197418E2,5.264175E1,1.7296498E2,7.642454E0,1.3305088E1,2.0670004E1,2.3245375E0,3.4447935E0,2.33268E0,1.1886299E1,1.9107645E1,6.2699986E1],"tree_param":{"num_deleted":"0","num_feature":"6","num_nodes":"107","size_leaf_vector":"1"}},{"base_weights":[-3.698852E-1,-3.367965E-1,-3.9969948E-1,-4.6220395E-1,-3.0676267E-1,-3.747471E-1,-4.7992903E-1,-4.8371908E-1,-1.5314583E-1,-4.3558758E-1,-2.9157245E-1,-3.7960586E-1,2.174531E-2,-4.876672E-1,7.447716E-2,-4.9056584E-1,-9.945508E-2,4.1337025E-1,-2.7755138E-1,-1.666271E-1,-5.1373535E-1,-2.9929793E-1,-9.2203645E-3,-4.3376806E-1,-3.5400423E-1,2.8519332E-1,-3.3810815E-1,-5.3976846E-1,-3.9839688E-1,-1.2379581E-1,1.6921268E-1,-4.0699542E-1,-5.2782685E-1,-1.11451544E-1,1.3777511E-1,-9.9601455E-2,2.8799278E-1,1.20137855E-1,-4.352511E-1,3.3494532E-1,-2.7634552E-1,-5.253433E-1,1.79593E-2,-3.5227665E-1,-2.5597662E-1,-1.8702266E-1,4.6420845E-1,-4.4682547E-1,-2.2390184E-1,-3.688002E-1,-5.6970246E-2,7.576587E-1,-1.7231928E-2,-1.4042455E-1,1.4917884E-2,-1.1776728E-1,-5.441926E-1,-4.5498917E-1,-2.6674673E-1,-3.6457196E-2,-1.448399E-1,-1.6892782E-1,-1.3111313E-1,-9.766118E-2,1.5361157E-1,-1.1529837E-1,1.7660043E-1,-1.562027E-1,3.852972E-2,2.136016E-1,-1.0538664E-1,-1.3127007E-1,9.700634E-2,-6.6160955E-2,-1.6079955E-1,-1.09659225E-1,-3.6344834E-2,2.08591E-1,-8.063904E-2,2.2335769E-1,-9.59266E-2,-1.0872262E-1,2.3050301E-1,-1.5446067E-1,-1.2472662E-1,5.7566855E-2,-1.6113219E-1,-9.793623E-2,-1.2612055E-1,1.8729298E-1,-5.8220595E-2,2.9776257E-1,4.2714663E-2,1.0271174E-1,-7.065105E-2,4.3256544E-2,-9.7206615E-2,-1.6458829E-1,-5.9725963E-2,-9.660192E-2,-1.5548751E-1,-9.287446E-2,1.8833356E-1],"categories":[],"categories_nodes":[],"categories_segments":[],"categories_sizes":[],"default_left":[0,0,0,0,0,0,0,0,0,0,0,0,0,0,0,0,0,0,0,0,0,0,0,0,0,0,0,0,0,0,0,0,0,0,0,0,0,0,0,0,0,0,0,0,0,0,0,0,0,0,0,0,0,0,0,0,0,0,0,0,0,0,0,0,0,0,0,0,0,0,0,0,0,0,0,0,0,0,0,0,0,0,0,0,0,0,0,0,0,0,0,0,0,0,0,0,0,0,0,0,0,0,0],"id":10,"left_children":[1,3,5,7,9,11,13,15,17,19,21,23,25,27,29,31,33,35,37,39,41,43,45,47,49,51,53,55,57,-1,-1,59,61,-1,63,-1,-1,65,67,69,71,73,-1,75,77,79,81,83,85,87,89,91,93,-1,-1,95,97,99,101,-1,-1,-1,-1,-1,-1,-1,-1,-1,-1,-1,-1,-1,-1,-1,-1,-1,-1,-1,-1,-1,-1,-1,-1,-1,-1,-1,-1,-1,-1,-1,-1,-1,-1,-1,-1,-1,-1,-1,-1,-1,-1,-1,-1],"loss_changes":[2.3997498E0,4.4683228E0,2.5147552E0,1.4853516E0,1.8112259E0,1.9949341E0,1.3909302E0,5.2685547E-1,1.293608E0,2.06769E0,1.9364624E0,1.2591858E0,1.3696505E0,1.2339554E0,1.4761939E0,4.5376587E-1,3.793303E-1,1.709474E0,9.499625E-1,1.4433045E0,5.5679893E-1,1.895813E0,2.1667073E0,7.8391266E-1,3.0433502E0,1.198462E0,3.3248317E-1,2.9793167E-1,7.6249504E-1,0E0,0E0,1.4686499E0,2.1854782E-1,0E0,7.6414686E-1,0E0,0E0,1.3720796E0,5.7081115E-1,1.5070121E0,2.1416276E0,1.3329697E-1,0E0,1.140049E0,6.0371647E0,2.5472162E0,2.0466347E0,4.2582703E-1,2.824657E0,1.3136673E0,3.3217468E0,3.2982135E-1,5.544126E-1,0E0,0E0,2.2436629E-1,1.8405533E-1,5.1961136E-1,1.6535387E0,0E0,0E0,0E0,0E0,0E0,0E0,0E0,0E0,0E0,0E0,0E0,0E0,0E0,0E0,0E0,0E0,0E0,0E0,0E0,0E0,0E0,0E0,0E0,0E0,0E0,0E0,0E0,0E0,0E0,0E0,0E0,0E0,0E0,0E0,0E0,0E0,0E0,0E0,0E0,0E0,0E0,0E0,0E0,0E0],"parents":[2147483647,0,0,1,1,2,2,3,3,4,4,5,5,6,6,7,7,8,8,9,9,10,10,11,11,12,12,13,13,14,14,15,15,16,16,17,17,18,18,19,19,20,20,21,21,22,22,23,23,24,24,25,25,26,26,27,27,28,28,31,31,32,32,34,34,37,37,38,38,39,39,40,40,41,41,43,43,44,44,45,45,46,46,47,47,48,48,49,49,50,50,51,51,52,52,55,55,56,56,57,57,58,58],"right_children":[2,4,6,8,10,12,14,16,18,20,22,24,26,28,30,32,34,36,38,40,42,44,46,48,50,52,54,56,58,-1,-1,60,62,-1,64,-1,-1,66,68,70,72,74,-1,76,78,80,82,84,86,88,90,92,94,-1,-1,96,98,100,102,-1,-1,-1,-1,-1,-1,-1,-1,-1,-1,-1,-1,-1,-1,-1,-1,-1,-1,-1,-1,-1,-1,-1,-1,-1,-1,-1,-1,-1,-1,-1,-1,-1,-1,-1,-1,-1,-1,-1,-1,-1,-1,-1,-1],"split_conditions":[-6.551274E-2,-1.169986E0,3.148118E-1,1.0251955E0,-5.6674594E-1,1.48193E0,1.745142E0,-1.13510735E-1,4.7851002E-1,-6.60461E-1,1.6605635E0,-9.474501E-1,1.1839827E0,7.803214E-1,-1.0611996E-1,-6.064463E-1,3.457286E-1,-5.6674594E-1,-6.526085E-1,-1.6349969E0,2.2651143E0,4.8819232E-1,-6.345957E-2,6.0795322E-2,1.6743778E0,-3.4027275E-1,1.663333E0,-1.7387882E0,-2.712356E-1,-1.2379581E-1,1.6921268E-1,-1.4628835E-1,-4.8995173E-1,-1.11451544E-1,-5.72494E-1,-9.9601455E-2,2.8799278E-1,-1.574933E0,-4.6779567E-1,-5.743299E-1,5.2381223E-1,-1.4671301E0,1.79593E-2,2.8780377E0,5.0244915E-1,-5.438595E-1,-5.5962795E-1,-6.307127E-1,-1.4225668E0,-4.3531993E-1,7.863342E-2,1.8480821E0,-1.6821965E0,-1.4042455E-1,1.4917884E-2,8.838868E-1,5.8255734E0,2.8255254E-1,5.8255734E0,-3.6457196E-2,-1.448399E-1,-1.6892782E-1,-1.3111313E-1,-9.766118E-2,1.5361157E-1,-1.1529837E-1,1.7660043E-1,-1.562027E-1,3.852972E-2,2.136016E-1,-1.0538664E-1,-1.3127007E-1,9.700634E-2,-6.6160955E-2,-1.6079955E-1,-1.09659225E-1,-3.6344834E-2,2.08591E-1,-8.063904E-2,2.2335769E-1,-9.59266E-2,-1.0872262E-1,2.3050301E-1,-1.5446067E-1,-1.2472662E-1,5.7566855E-2,-1.6113219E-1,-9.793623E-2,-1.2612055E-1,1.8729298E-1,-5.8220595E-2,2.9776257E-1,4.2714663E-2,1.0271174E-1,-7.065105E-2,4.3256544E-2,-9.7206615E-2,-1.6458829E-1,-5.9725963E-2,-9.660192E-2,-1.5548751E-1,-9.287446E-2,1.8833356E-1],"split_indices":[0,1,5,2,3,3,0,0,4,5,1,4,0,1,1,5,4,3,5,2,2,4,2,5,1,5,0,2,4,0,0,4,3,0,3,0,0,0,3,3,1,2,0,3,4,3,5,5,4,3,0,3,2,0,0,5,3,0,3,0,0,0,0,0,0,0,0,0,0,0,0,0,0,0,0,0,0,0,0,0,0,0,0,0,0,0,0,0,0,0,0,0,0,0,0,0,0,0,0,0,0,0,0],"split_type":[0,0,0,0,0,0,0,0,0,0,0,0,0,0,0,0,0,0,0,0,0,0,0,0,0,0,0,0,0,0,0,0,0,0,0,0,0,0,0,0,0,0,0,0,0,0,0,0,0,0,0,0,0,0,0,0,0,0,0,0,0,0,0,0,0,0,0,0,0,0,0,0,0,0,0,0,0,0,0,0,0,0,0,0,0,0,0,0,0,0,0,0,0,0,0,0,0,0,0,0,0,0,0],"sum_hessian":[2.5680032E3,1.2229901E3,1.3450131E3,2.3352153E2,9.894686E2,1.0302603E3,3.1475278E2,2.1779459E2,1.5726932E1,1.0144658E2,8.8802203E2,1.0178301E3,1.2430255E1,3.105388E2,4.2139854E0,2.1371008E2,4.084503E0,2.4135196E0,1.3313413E1,2.3544815E1,7.7901764E1,8.643134E2,2.3708609E1,3.215734E2,6.9625665E2,7.296197E0,5.134058E0,1.9290584E2,1.1763295E2,2.190994E0,2.0229917E0,6.957886E1,1.4413123E2,1.6389649E0,2.445538E0,1.1872036E0,1.226316E0,3.8479033E0,9.465509E0,3.8575308E0,1.9687284E1,7.6439E1,1.4627647E0,3.856097E2,4.787037E2,1.7675362E1,6.033248E0,3.0167474E2,1.9898647E1,6.6299005E2,3.3266647E1,2.2600877E0,5.036109E0,3.6903965E0,1.4436617E0,2.2879379E0,1.906179E2,8.0550674E1,3.7082275E1,1.514549E1,5.4433365E1,1.0005933E2,4.40719E1,1.1509426E0,1.2945956E0,1.9394338E0,1.9084694E0,8.286077E0,1.1794329E0,2.4653556E0,1.3921752E0,1.5729087E1,3.9581974E0,3.3147044E0,7.31243E1,3.641461E2,2.146363E1,5.6576962E0,4.73046E2,1.6295552E0,1.6045807E1,1.5712085E0,4.4620395E0,8.968776E1,2.1198697E2,8.715651E0,1.1182997E1,3.6817728E2,2.9481274E2,4.9776387E0,2.828901E1,1.1919096E0,1.0681783E0,1.687453E0,3.3486562E0,1.1404364E0,1.1475015E0,1.8761707E2,3.000843E0,2.7940796E1,5.2609875E1,3.6011753E1,1.0705247E0],"tree_param":{"num_deleted":"0","num_feature":"6","num_nodes":"103","size_leaf_vector":"1"}},{"base_weights":[-3.415297E-1,-3.934912E-1,-3.078567E-1,-2.951342E-1,-4.341547E-1,-4.269622E-1,-2.9311913E-1,-2.4033572E-1,-4.1891843E-1,-4.6094826E-1,-3.5976943E-1,-6.987916E-2,-4.4253093E-1,-6.184474E-2,-3.02028E-1,-8.191919E-2,-2.9639676E-1,-1.3041158E-1,-4.7441974E-1,-1.6752109E-1,-4.428132E-1,-2.8925806E-1,-4.7805938E-1,-1.3468711E-1,2.5952205E-1,-3.3867687E-1,-4.8391378E-1,1.6909072E-1,-2.027567E-1,-2.7324346E-1,-3.6844763E-1,-2.996278E-1,1.4144275E-1,-2.3201817E-1,-4.2458677E-1,-4.2291155E-1,2.0641258E-1,-5.4210454E-1,-2.2256617E-1,-4.5395303E-1,-2.8137174E-1,-3.0894867E-1,1.9556068E-1,-4.893264E-1,8.947104E-3,-1.0642171E-1,5.608189E-1,-8.5265175E-2,-4.5434195E-1,-5.255211E-1,-3.8593686E-1,7.1279585E-1,3.0158611E-2,-1.3676365E-2,-4.2455378E-1,-3.1492266E-1,-2.2134507E-1,-3.469554E-1,-4.8121065E-1,-1.4959498E-1,-1.3448834E-2,-9.463381E-3,3.3341444E-1,-8.7184116E-2,1.2125665E-1,-1.4448929E-1,-5.189393E-2,-1.5807946E-1,5.4465014E-2,-8.6595245E-2,2.4390805E-1,-1.6710225E-1,-7.292037E-2,-1.2535995E-1,1.7187385E-1,-1.3726749E-1,-6.916311E-3,-1.0710372E-1,1.1519749E-1,1.7751452E-2,-1.0333712E-1,-1.4364502E-2,-1.5040267E-1,3.079004E-1,-7.998381E-3,-1.08525686E-1,1.1586756E-1,2.0469963E-3,-1.5121496E-1,-1.6075513E-1,-7.134056E-2,-1.4631669E-1,-4.257517E-2,7.951761E-2,2.9741222E-1,-1.3166563E-1,3.926414E-2,-1.5376286E-1,5.5546436E-2,3.585076E-2,-1.4348136E-1,-1.0983822E-2,-1.0121792E-1,-9.5128156E-2,-3.9975308E-2,-1.3266481E-1,-9.2076E-2,-1.5282768E-1,2.5921436E-2],"categories":[],"categories_nodes":[],"categories_segments":[],"categories_sizes":[],"default_left":[0,0,0,0,0,0,0,0,0,0,0,0,0,0,0,0,0,0,0,0,0,0,0,0,0,0,0,0,0,0,0,0,0,0,0,0,0,0,0,0,0,0,0,0,0,0,0,0,0,0,0,0,0,0,0,0,0,0,0,0,0,0,0,0,0,0,0,0,0,0,0,0,0,0,0,0,0,0,0,0,0,0,0,0,0,0,0,0,0,0,0,0,0,0,0,0,0,0,0,0,0,0,0,0,0,0,0,0,0],"id":11,"left_children":[1,3,5,7,9,11,13,15,17,19,21,23,25,27,29,31,33,35,37,-1,39,41,43,-1,45,47,49,51,53,55,57,59,61,63,65,67,69,71,73,75,77,79,-1,81,-1,-1,83,85,87,89,91,93,95,97,99,101,103,105,107,-1,-1,-1,-1,-1,-1,-1,-1,-1,-1,-1,-1,-1,-1,-1,-1,-1,-1,-1,-1,-1,-1,-1,-1,-1,-1,-1,-1,-1,-1,-1,-1,-1,-1,-1,-1,-1,-1,-1,-1,-1,-1,-1,-1,-1,-1,-1,-1,-1,-1],"loss_changes":[4.436493E0,3.9539948E0,2.6572723E0,1.9455547E0,1.2691345E0,9.27227E-1,2.8942642E0,1.8535433E0,1.3987942E0,6.8195343E-1,1.489996E0,1.1639122E0,5.450783E-1,1.7816805E0,2.5015106E0,2.7971349E0,1.1871996E0,1.6731188E0,1.1770039E0,0E0,6.781616E-1,2.5148983E0,4.2302895E-1,0E0,1.1468538E0,1.4366279E0,2.6854134E-1,1.5567913E0,1.4118233E0,1.9926605E0,8.2341003E-1,1.4486873E0,4.8406754E0,4.06582E0,6.469412E-1,6.579642E-1,2.6832235E0,1.288929E-1,3.0080397E0,6.381302E-1,1.725219E0,1.6276693E0,0E0,3.466835E-1,0E0,0E0,1.0730791E0,2.3565798E0,7.903943E-1,1.0556221E-1,8.8035345E-1,2.6211667E-1,8.9296806E-1,2.0073678E0,5.1080704E-1,3.2796974E0,3.5680752E0,1.1869469E0,1.0503168E0,0E0,0E0,0E0,0E0,0E0,0E0,0E0,0E0,0E0,0E0,0E0,0E0,0E0,0E0,0E0,0E0,0E0,0E0,0E0,0E0,0E0,0E0,0E0,0E0,0E0,0E0,0E0,0E0,0E0,0E0,0E0,0E0,0E0,0E0,0E0,0E0,0E0,0E0,0E0,0E0,0E0,0E0,0E0,0E0,0E0,0E0,0E0,0E0,0E0,0E0],"parents":[2147483647,0,0,1,1,2,2,3,3,4,4,5,5,6,6,7,7,8,8,9,9,10,10,11,11,12,12,13,13,14,14,15,15,16,16,17,17,18,18,20,20,21,21,22,22,24,24,25,25,26,26,27,27,28,28,29,29,30,30,31,31,32,32,33,33,34,34,35,35,36,36,37,37,38,38,39,39,40,40,41,41,43,43,46,46,47,47,48,48,49,49,50,50,51,51,52,52,53,53,54,54,55,55,56,56,57,57,58,58],"right_children":[2,4,6,8,10,12,14,16,18,20,22,24,26,28,30,32,34,36,38,-1,40,42,44,-1,46,48,50,52,54,56,58,60,62,64,66,68,70,72,74,76,78,80,-1,82,-1,-1,84,86,88,90,92,94,96,98,100,102,104,106,108,-1,-1,-1,-1,-1,-1,-1,-1,-1,-1,-1,-1,-1,-1,-1,-1,-1,-1,-1,-1,-1,-1,-1,-1,-1,-1,-1,-1,-1,-1,-1,-1,-1,-1,-1,-1,-1,-1,-1,-1,-1,-1,-1,-1,-1,-1,-1,-1,-1,-1],"split_conditions":[-4.594362E-1,-6.1863476E-1,-5.780635E-1,-5.428434E-1,5.3444767E-1,-4.511621E-1,-1.6821965E0,-7.7546495E-1,-1.5083765E0,-1.4652287E0,-4.862871E-2,-6.57486E-1,-8.0010164E-1,8.218801E-1,3.7346306E-1,-1.0446683E0,-3.1364766E-1,-2.708072E-1,1.1563737E0,-1.6752109E-1,-4.7420058E-1,1.7407491E0,1.8221586E0,-1.3468711E-1,-1.2014968E0,-6.708535E-1,1.3846576E0,-2.1576126E-1,3.5283726E-1,2.2600228E-1,2.681878E0,-1.2647312E0,6.48805E-2,-5.096237E-1,1.0947113E0,-6.39613E-1,-5.103172E-1,-6.2304693E-1,-1.7470957E-1,2.6704879E0,1.7407491E0,6.260228E-1,1.9556068E-1,5.657242E-1,8.947104E-3,-1.0642171E-1,-1.2364094E0,-4.8055223E-1,-1.1176531E0,6.459307E-1,-7.1719265E-1,-3.5136628E-1,-1.3572956E0,-5.164353E-1,-2.934935E-1,-4.431831E-1,-2.3951344E-1,6.705746E-1,1.4167448E0,-1.4959498E-1,-1.3448834E-2,-9.463381E-3,3.3341444E-1,-8.7184116E-2,1.2125665E-1,-1.4448929E-1,-5.189393E-2,-1.5807946E-1,5.4465014E-2,-8.6595245E-2,2.4390805E-1,-1.6710225E-1,-7.292037E-2,-1.2535995E-1,1.7187385E-1,-1.3726749E-1,-6.916311E-3,-1.0710372E-1,1.1519749E-1,1.7751452E-2,-1.0333712E-1,-1.4364502E-2,-1.5040267E-1,3.079004E-1,-7.998381E-3,-1.08525686E-1,1.1586756E-1,2.0469963E-3,-1.5121496E-1,-1.6075513E-1,-7.134056E-2,-1.4631669E-1,-4.257517E-2,7.951761E-2,2.9741222E-1,-1.3166563E-1,3.926414E-2,-1.5376286E-1,5.5546436E-2,3.585076E-2,-1.4348136E-1,-1.0983822E-2,-1.0121792E-1,-9.5128156E-2,-3.9975308E-2,-1.3266481E-1,-9.2076E-2,-1.5282768E-1,2.5921436E-2],"split_indices":[3,5,5,3,0,3,2,2,0,0,1,1,0,1,3,1,1,2,1,0,3,2,0,0,2,5,1,5,0,1,5,0,4,1,4,5,3,5,4,2,2,0,0,0,0,0,4,2,4,3,2,5,0,0,3,3,4,3,1,0,0,0,0,0,0,0,0,0,0,0,0,0,0,0,0,0,0,0,0,0,0,0,0,0,0,0,0,0,0,0,0,0,0,0,0,0,0,0,0,0,0,0,0,0,0,0,0,0,0],"split_type":[0,0,0,0,0,0,0,0,0,0,0,0,0,0,0,0,0,0,0,0,0,0,0,0,0,0,0,0,0,0,0,0,0,0,0,0,0,0,0,0,0,0,0,0,0,0,0,0,0,0,0,0,0,0,0,0,0,0,0,0,0,0,0,0,0,0,0,0,0,0,0,0,0,0,0,0,0,0,0,0,0,0,0,0,0,0,0,0,0,0,0,0,0,0,0,0,0,0,0,0,0,0,0,0,0,0,0,0,0],"sum_hessian":[2.6037815E3,1.0196506E3,1.5841307E3,3.0066306E2,7.1898755E2,1.7135011E2,1.4127806E3,2.1044293E2,9.022012E1,5.247689E2,1.9421861E2,7.387995E0,1.6396211E2,5.2697357E1,1.3600833E3,5.5649776E1,1.5479315E2,1.5096299E1,7.512382E1,7.765751E1,4.4711142E2,1.23842674E2,7.037593E1,3.2662342E0,4.1217604E0,4.9335114E1,1.1462701E2,1.9893936E1,3.2803417E1,9.5243616E2,4.076472E2,2.8008617E1,2.764116E1,1.04914024E2,4.987913E1,7.942983E0,7.153316E0,5.830271E1,1.6821108E1,4.1655618E2,3.0555258E1,1.21962654E2,1.8800217E0,6.888432E1,1.4916105E0,1.2980406E0,2.8237197E0,1.600556E1,3.332955E1,7.739596E1,3.723105E1,3.2082086E0,1.6685728E1,1.8280819E1,1.4522599E1,5.2541315E2,4.2702298E2,3.4581326E2,6.18339E1,1.5188161E1,1.28204565E1,2.4278582E1,3.362577E0,9.656359E1,8.35043E0,3.9915337E1,9.963794E0,6.8862176E0,1.0567654E0,4.2274313E0,2.9258847E0,5.471331E1,3.5894039E0,1.3886494E1,2.9346142E0,4.1303848E2,3.5176833E0,2.7852346E1,2.7029111E0,1.0670781E1,1.1129187E2,1.957384E0,6.692694E1,1.1586227E0,1.6650969E0,1.0235877E1,5.769683E0,3.3269057E0,3.0002647E1,7.388118E1,3.5147796E0,2.5567593E1,1.1663455E1,1.9789939E0,1.2292148E0,2.35615E0,1.4329578E1,4.7600627E0,1.3520757E1,1.1949857E0,1.3327614E1,3.9448486E1,4.8596466E2,2.0337576E2,2.2364722E2,9.9356895E1,2.4645638E2,5.900348E1,2.8304195E0],"tree_param":{"num_deleted":"0","num_feature":"6","num_nodes":"109","size_leaf_vector":"1"}},{"base_weights":[-3.4898245E-1,-4.4641045E-1,-3.3560514E-1,-1.6729996E-1,-3.6567658E-1,-3.2645974E-1,-4.4956964E-1,-3.0593413E-1,-5.272359E-1,-3.3372214E-1,-2.1335171E-1,-3.332473E-1,-4.8417467E-1,-1.900709E-1,-4.1061658E-1,-3.3796164E-1,-1.6945165E-1,-3.4107035E-1,-2.1538964E-1,3.1170732E-1,-2.5465816E-1,-4.3987408E-1,8.104042E-1,-5.266778E-1,-4.0055376E-1,3.7519094E-1,-3.2415557E-1,-4.4322672E-1,1.3882272E-1,-4.176228E-1,6.175467E-2,-2.8946832E-1,-3.57363E-1,-8.047881E-5,-3.9415282E-1,-1.2673844E-1,6.203336E-1,1.781526E-1,-2.883942E-1,-4.813073E-1,-4.2894505E-2,1.2634127E-2,3.7444228E-1,-1.614215E-1,2.595504E-2,-4.8403856E-1,-1.1767348E-1,2.0016737E-1,-1.3310167E-1,-1.0594742E-1,9.897348E-2,-1.495871E-1,-6.6133305E-2,-1.13291696E-1,1.755587E-1,-1.5437074E-1,3.7660167E-2,-1.2417046E-1,-3.5422627E-2,-8.399864E-2,-1.155576E-1,2.7656863E-2,-1.6064233E-1,-1.2769905E-1,-1.2844055E-2,1.3132538E-2,2.809416E-1,1.1522072E-1,-1.20001025E-1,-9.810276E-2,-1.2962669E-3,-5.1852897E-2,-1.6868989E-1,-1.0929455E-1,7.546868E-2,-2.6094118E-2,-1.5219948E-1,2.0184854E-1,-1.2426184E-1],"categories":[],"categories_nodes":[],"categories_segments":[],"categories_sizes":[],"default_left":[0,0,0,0,0,0,0,0,0,0,0,0,0,0,0,0,0,0,0,0,0,0,0,0,0,0,0,0,0,0,0,0,0,0,0,0,0,0,0,0,0,0,0,0,0,0,0,0,0,0,0,0,0,0,0,0,0,0,0,0,0,0,0,0,0,0,0,0,0,0,0,0,0,0,0,0,0,0,0],"id":12,"left_children":[1,3,5,-1,7,9,11,13,15,17,19,21,23,25,27,29,-1,31,33,35,37,39,41,43,45,47,49,51,53,55,-1,57,59,61,63,-1,65,67,69,71,73,-1,-1,-1,-1,75,77,-1,-1,-1,-1,-1,-1,-1,-1,-1,-1,-1,-1,-1,-1,-1,-1,-1,-1,-1,-1,-1,-1,-1,-1,-1,-1,-1,-1,-1,-1,-1,-1],"loss_changes":[3.2305603E0,2.5814514E0,2.234375E0,0E0,1.6011982E0,1.6690369E0,5.111313E-1,1.5677385E0,1.5011978E-1,1.6559906E0,2.9116893E0,5.418681E0,2.3881531E-1,5.1442795E0,1.323329E0,5.378386E-1,0E0,1.4694977E0,4.580245E0,2.5220141E0,1.8271546E0,6.145892E-1,1.2563894E0,6.105671E-1,1.0488143E0,3.445207E0,1.1427493E0,7.1345806E-1,1.3061348E0,5.610614E-1,0E0,9.638462E0,2.9445648E0,2.7655563E0,7.015896E-1,0E0,1.3127804E0,1.274183E0,1.2403917E0,7.7404404E-1,5.409968E-1,0E0,0E0,0E0,0E0,2.8726864E-1,3.0894516E0,0E0,0E0,0E0,0E0,0E0,0E0,0E0,0E0,0E0,0E0,0E0,0E0,0E0,0E0,0E0,0E0,0E0,0E0,0E0,0E0,0E0,0E0,0E0,0E0,0E0,0E0,0E0,0E0,0E0,0E0,0E0,0E0],"parents":[2147483647,0,0,1,1,2,2,4,4,5,5,6,6,7,7,8,8,9,9,10,10,11,11,12,12,13,13,14,14,15,15,17,17,18,18,19,19,20,20,21,21,22,22,23,23,24,24,25,25,26,26,27,27,28,28,29,29,31,31,32,32,33,33,34,34,36,36,37,37,38,38,39,39,40,40,45,45,46,46],"right_children":[2,4,6,-1,8,10,12,14,16,18,20,22,24,26,28,30,-1,32,34,36,38,40,42,44,46,48,50,52,54,56,-1,58,60,62,64,-1,66,68,70,72,74,-1,-1,-1,-1,76,78,-1,-1,-1,-1,-1,-1,-1,-1,-1,-1,-1,-1,-1,-1,-1,-1,-1,-1,-1,-1,-1,-1,-1,-1,-1,-1,-1,-1,-1,-1,-1,-1],"split_conditions":[-5.654018E-1,-8.2940537E-1,1.499729E0,-1.6729996E-1,1.5738104E-1,1.5806205E0,-5.4456854E-1,-6.0075045E-1,-6.60461E-1,1.6605635E0,-5.5312973E-1,-5.527752E-1,4.708385E-1,-1.9153994E-1,5.291636E-2,-5.6728685E-1,-1.6945165E-1,-8.716354E-1,3.2161295E-1,-1.3443846E0,-1.2805725E0,-2.9935095E-1,-3.3827025E-1,2.3856628E0,8.2100624E-1,1.6653188E0,-6.040532E-1,7.578597E-1,-5.761246E-1,-6.6506E-1,6.175467E-2,-4.0052512E-1,-4.6504822E-1,1.9145103E0,4.693664E-1,-1.2673844E-1,-6.552265E-1,-3.0375153E-1,1.2387785E0,-5.5086255E-1,9.183393E-1,1.2634127E-2,3.7444228E-1,-1.614215E-1,2.595504E-2,4.8506692E-1,9.4593656E-1,2.0016737E-1,-1.3310167E-1,-1.0594742E-1,9.897348E-2,-1.495871E-1,-6.6133305E-2,-1.13291696E-1,1.755587E-1,-1.5437074E-1,3.7660167E-2,-1.2417046E-1,-3.5422627E-2,-8.399864E-2,-1.155576E-1,2.7656863E-2,-1.6064233E-1,-1.2769905E-1,-1.2844055E-2,1.3132538E-2,2.809416E-1,1.1522072E-1,-1.20001025E-1,-9.810276E-2,-1.2962669E-3,-5.1852897E-2,-1.6868989E-1,-1.0929455E-1,7.546868E-2,-2.6094118E-2,-1.5219948E-1,2.0184854E-1,-1.2426184E-1],"split_indices":[3,0,2,0,1,0,5,5,5,1,3,5,1,0,1,3,0,0,0,4,1,3,1,5,4,4,5,2,3,5,0,3,3,1,2,0,5,5,1,3,1,0,0,0,0,1,4,0,0,0,0,0,0,0,0,0,0,0,0,0,0,0,0,0,0,0,0,0,0,0,0,0,0,0,0,0,0,0,0],"split_type":[0,0,0,0,0,0,0,0,0,0,0,0,0,0,0,0,0,0,0,0,0,0,0,0,0,0,0,0,0,0,0,0,0,0,0,0,0,0,0,0,0,0,0,0,0,0,0,0,0,0,0,0,0,0,0,0,0,0,0,0,0,0,0,0,0,0,0,0,0,0,0,0,0,0,0,0,0,0,0],"sum_hessian":[2.592688E3,3.0910184E2,2.2835862E3,1.27496605E2,1.8160522E2,2.1175234E3,1.660627E2,1.346917E2,4.691353E1,1.9879319E3,1.2959152E2,4.0512577E1,1.25550125E2,6.526816E1,6.942353E1,9.430873E0,3.7482655E1,1.8699308E3,1.1800112E2,8.974001E0,1.2061753E2,3.762046E1,2.892115E0,7.972752E1,4.58226E1,1.2169008E1,5.309915E1,6.571646E1,3.70707E0,8.428283E0,1.0025898E0,4.5322916E2,1.4167017E3,5.3982727E1,6.401839E1,2.5467875E0,6.427213E0,8.412322E0,1.1220521E2,3.3872707E1,3.747755E0,1.4475921E0,1.444523E0,7.8393394E1,1.3341247E0,3.483179E1,1.0990812E1,9.106509E0,3.0624993E0,5.1285137E1,1.8140159E0,5.1638027E1,1.4078437E1,1.7899957E0,1.9170744E0,7.1964445E0,1.2318383E0,2.617678E2,1.9146135E2,3.77705E2,1.0389966E3,4.675309E1,7.2296376E0,5.8555195E1,5.4631968E0,2.6792996E0,3.7479138E0,6.4505787E0,1.9617426E0,9.864494E1,1.3560265E1,7.696018E0,2.617669E1,1.6784078E0,2.0693471E0,2.192473E0,3.2639317E1,2.6520212E0,8.338791E0],"tree_param":{"num_deleted":"0","num_feature":"6","num_nodes":"79","size_leaf_vector":"1"}},{"base_weights":[2.3492615E-1,2.740432E-1,1.6912313E-1,-1.9180821E-1,2.7856877E-1,1.7789125E-1,-1.13880634E-1,-1.5582047E-1,-5.616319E-2,2.925407E-1,1.7964634E-1,8.726202E-2,2.1319E-1,1.9662794E-1,-2.058302E-1,5.488653E-2,-1.3732369E-1,5.8582906E-2,3.0012196E-1,2.2504406E-1,-4.178675E-2,1.0506875E-1,-2.6545015E-1,1.8922658E-1,3.94559E-1,-1.4081033E-1,4.5290333E-1,-3.3933604E-1,1.5437955E-1,-2.0807478E-1,8.7449944E-1,2.7685902E-1,-2.0186107E-1,4.0113318E-1,2.7637705E-1,2.3598617E-1,-1.4207721E-1,-3.9017168E-1,1.6372997E-1,2.7566286E-2,2.3505276E-1,-4.2677188E-1,1.2774903E-1,2.2042076E-1,-4.277493E-2,7.375456E-1,1.8724997E-1,6.671165E-1,-1.1484085E-1,-1.6250719E-1,-1.7443031E-1,-7.1152754E-2,2.4757262E-1,4.429433E-2,-9.534221E-2,3.3703393E-1,4.2789947E-2,1.4903425E-1,-1.0878294E-1,-7.615643E-2,1.7596564E-1,2.9549677E-2,1.3505588E-1,-8.018285E-2,8.43689E-2,5.0217427E-2,1.08497515E-1,6.6703823E-3,-1.5710543E-1,1.4232881E-1,-1.5155089E-2,3.2595947E-2,-3.8314696E-2,1.327849E-1,4.5714885E-2,-6.8526147E-3,-1.4511229E-1,3.3455396E-1,-9.222286E-2,5.8100574E-2,1.1580841E-1,-3.7055727E-2,1.1382058E-1,-4.598901E-3,2.756238E-1,7.417199E-2,-1.16372675E-1,3.5278864E-2,4.0301204E-1,-1.2812757E-1,1.391236E-1,-1.4882919E-1,1.1853362E-1],"categories":[],"categories_nodes":[],"categories_segments":[],"categories_sizes":[],"default_left":[0,0,0,0,0,0,0,0,0,0,0,0,0,0,0,0,0,0,0,0,0,0,0,0,0,0,0,0,0,0,0,0,0,0,0,0,0,0,0,0,0,0,0,0,0,0,0,0,0,0,0,0,0,0,0,0,0,0,0,0,0,0,0,0,0,0,0,0,0,0,0,0,0,0,0,0,0,0,0,0,0,0,0,0,0,0,0,0,0,0,0,0,0],"id":13,"left_children":[1,3,5,7,9,11,13,-1,15,17,19,21,23,25,27,29,-1,31,33,35,37,39,41,43,45,-1,47,49,51,53,55,57,59,61,63,65,-1,67,69,71,73,75,77,79,81,83,85,87,-1,89,-1,91,-1,-1,-1,-1,-1,-1,-1,-1,-1,-1,-1,-1,-1,-1,-1,-1,-1,-1,-1,-1,-1,-1,-1,-1,-1,-1,-1,-1,-1,-1,-1,-1,-1,-1,-1,-1,-1,-1,-1,-1,-1],"loss_changes":[9.334061E0,4.8685913E0,3.3981895E0,9.736113E-1,3.0744019E0,4.2066803E0,1.2258673E0,0E0,7.868161E-1,3.4957886E0,2.8501444E0,2.3637767E0,4.053627E0,1.91887E0,1.616335E0,3.2581558E0,0E0,3.6609585E0,4.4904175E0,1.9056797E0,3.5666556E0,3.5674045E0,1.2062807E0,6.095278E0,7.6785126E0,0E0,1.6388539E0,9.346571E-1,1.493263E0,5.002598E-1,5.0644183E-1,5.091357E0,1.3578905E0,5.3431854E0,4.1813736E0,1.9369535E0,0E0,1.0273883E0,2.119126E0,2.8265207E0,2.2041073E0,2.903521E-1,2.943307E0,3.2099915E0,3.4728937E0,5.6173935E0,2.5062804E0,2.2634635E0,0E0,2.730001E0,0E0,1.7843766E0,0E0,0E0,0E0,0E0,0E0,0E0,0E0,0E0,0E0,0E0,0E0,0E0,0E0,0E0,0E0,0E0,0E0,0E0,0E0,0E0,0E0,0E0,0E0,0E0,0E0,0E0,0E0,0E0,0E0,0E0,0E0,0E0,0E0,0E0,0E0,0E0,0E0,0E0,0E0,0E0,0E0],"parents":[2147483647,0,0,1,1,2,2,3,3,4,4,5,5,6,6,8,8,9,9,10,10,11,11,12,12,13,13,14,14,15,15,17,17,18,18,19,19,20,20,21,21,22,22,23,23,24,24,26,26,27,27,28,28,29,29,30,30,31,31,32,32,33,33,34,34,35,35,37,37,38,38,39,39,40,40,41,41,42,42,43,43,44,44,45,45,46,46,47,47,49,49,51,51],"right_children":[2,4,6,8,10,12,14,-1,16,18,20,22,24,26,28,30,-1,32,34,36,38,40,42,44,46,-1,48,50,52,54,56,58,60,62,64,66,-1,68,70,72,74,76,78,80,82,84,86,88,-1,90,-1,92,-1,-1,-1,-1,-1,-1,-1,-1,-1,-1,-1,-1,-1,-1,-1,-1,-1,-1,-1,-1,-1,-1,-1,-1,-1,-1,-1,-1,-1,-1,-1,-1,-1,-1,-1,-1,-1,-1,-1,-1,-1],"split_conditions":[-2.0076026E-1,-1.7430857E0,1.5113515E0,-1.0951267E0,-1.5266795E-1,-6.360915E-1,-1.2521584E-1,-1.5582047E-1,-5.654018E-1,-1.7329694E0,1.5708145E0,1.5982754E0,1.7193847E0,-5.3249997E-1,5.2902335E-1,-5.7196957E-1,-1.3732369E-1,-6.2304693E-1,-8.542694E-1,2.659767E0,2.5330862E-1,7.4878967E-1,-3.589278E-1,1.4417617E0,2.35918E0,-1.4081033E-1,1.8525275E0,1.4456122E-1,-3.8984922E-1,-5.307738E-1,-2.0288979E-3,-3.7042183E-1,-1.507519E0,-7.4331254E-1,-8.3210564E-1,2.6288146E-1,-1.4207721E-1,-7.884912E-1,-1.2185246E0,2.6393571E-1,4.675745E-3,-1.0811077E-1,-3.021379E-1,1.0683743E0,8.083562E-1,-5.307738E-1,5.8255734E0,1.6653188E0,-1.1484085E-1,4.825818E-2,-1.7443031E-1,7.7103484E-1,2.4757262E-1,4.429433E-2,-9.534221E-2,3.3703393E-1,4.2789947E-2,1.4903425E-1,-1.0878294E-1,-7.615643E-2,1.7596564E-1,2.9549677E-2,1.3505588E-1,-8.018285E-2,8.43689E-2,5.0217427E-2,1.08497515E-1,6.6703823E-3,-1.5710543E-1,1.4232881E-1,-1.5155089E-2,3.2595947E-2,-3.8314696E-2,1.327849E-1,4.5714885E-2,-6.8526147E-3,-1.4511229E-1,3.3455396E-1,-9.222286E-2,5.8100574E-2,1.1580841E-1,-3.7055727E-2,1.1382058E-1,-4.598901E-3,2.756238E-1,7.417199E-2,-1.16372675E-1,3.5278864E-2,4.0301204E-1,-1.2812757E-1,1.391236E-1,-1.4882919E-1,1.1853362E-1],"split_indices":[5,1,4,2,3,4,5,0,3,4,1,0,3,3,5,3,0,5,4,3,0,0,2,5,3,0,4,5,0,0,2,3,2,0,4,3,0,4,2,0,5,5,2,1,4,0,3,4,0,5,0,2,0,0,0,0,0,0,0,0,0,0,0,0,0,0,0,0,0,0,0,0,0,0,0,0,0,0,0,0,0,0,0,0,0,0,0,0,0,0,0,0,0],"split_type":[0,0,0,0,0,0,0,0,0,0,0,0,0,0,0,0,0,0,0,0,0,0,0,0,0,0,0,0,0,0,0,0,0,0,0,0,0,0,0,0,0,0,0,0,0,0,0,0,0,0,0,0,0,0,0,0,0,0,0,0,0,0,0,0,0,0,0,0,0,0,0,0,0,0,0,0,0,0,0,0,0,0,0,0,0,0,0,0,0,0,0,0,0],"sum_hessian":[3.6432642E3,2.2829717E3,1.3602925E3,2.156669E1,2.261405E3,1.3197742E3,4.0518337E1,5.4867163E0,1.6079975E1,1.979816E3,2.8158887E2,3.7091785E2,9.488563E2,8.997122E0,3.1521217E1,1.3272931E1,2.8070433E0,6.2415195E1,1.9174009E3,2.3366673E2,4.7922142E1,3.537603E2,1.7157536E1,8.3992444E2,1.0893188E2,2.2690167E0,6.7281055E0,2.3039831E1,8.481386E0,1.0613779E1,2.6591518E0,3.3922215E1,2.849298E1,3.6191507E2,1.5554858E3,2.3071545E2,2.9512794E0,1.7447405E1,3.0474737E1,2.2237949E2,1.3138083E2,1.2105505E1,5.0520296E0,7.4041986E2,9.9504555E1,4.0073593E1,6.8858284E1,5.5159554E0,1.2121499E0,1.428055E1,8.75928E0,7.0164995E0,1.4648867E0,2.420775E0,8.193005E0,1.5849739E0,1.0741777E0,2.5407408E1,8.514809E0,2.7366266E1,1.1267128E0,5.089919E1,3.1101587E2,1.328282E1,1.542203E3,1.5075946E2,7.9955986E1,4.470872E0,1.2976533E1,1.1942053E1,1.8532684E1,1.4628894E2,7.609053E1,3.6182198E1,9.519863E1,1.6686285E0,1.0436876E1,1.0673585E0,3.984671E0,6.393145E2,1.0110538E2,8.412291E1,1.5381647E1,7.9514093E0,3.2122185E1,6.287089E1,5.987396E0,3.6907651E0,1.8251903E0,1.0262695E1,4.0178547E0,3.637433E0,3.3790665E0],"tree_param":{"num_deleted":"0","num_feature":"6","num_nodes":"93","size_leaf_vector":"1"}},{"base_weights":[4.4329324E-1,8.061084E-1,4.4005242E-1,4.212796E-1,9.334593E-1,4.1628343E-1,4.9359134E-1,7.1775836E-1,-1.437512E-1,3.0826825E-1,4.69671E-1,5.926092E-1,4.0905592E-1,5.138875E-1,3.689318E-1,3.3554837E-1,9.892478E-2,-1.5530058E-2,2.501599E-1,7.9034156E-1,4.1173458E-1,4.4656938E-1,3.8379413E-1,5.426949E-1,3.9643213E-1,3.0904612E-1,7.073928E-1,-1.4119792E-1,1.9114508E-1,-1.3259934E-1,1.2665252E-1,1.0306247E0,6.8922126E-1,6.2364414E-2,5.672634E-1,3.6230546E-1,4.7620463E-1,4.5095906E-1,3.4597608E-1,5.1108944E-1,6.775028E-1,3.806266E-1,3.4500375E-1,2.1066488E-1,4.9662822E-1,7.939412E-1,-1.1251859E-2,3.3682173E-1,7.686788E-2,-7.0764334E-3,2.2192729E-1,-2.4040453E-2,1.8938754E-1,1.3263951E-1,2.7115536E-1,8.144663E-2,1.5575823E-1,1.908224E-1,1.3370463E-1,7.6401025E-2,1.4989504E-1,4.2433124E-2,1.0730759E-1,1.8445085E-1,1.3563219E-1,-7.369408E-2,2.165438E-1,1.2662026E-1,3.1142611E-2,1.1923735E-1,-4.334964E-3,-6.8858355E-2,1.69454E-1,7.123686E-2,2.5775766E-1,1.4615415E-1,-1.3066083E-1],"categories":[],"categories_nodes":[],"categories_segments":[],"categories_sizes":[],"default_left":[0,0,0,0,0,0,0,0,0,0,0,0,0,0,0,0,0,0,0,0,0,0,0,0,0,0,0,0,0,0,0,0,0,0,0,0,0,0,0,0,0,0,0,0,0,0,0,0,0,0,0,0,0,0,0,0,0,0,0,0,0,0,0,0,0,0,0,0,0,0,0,0,0,0,0,0,0],"id":14,"left_children":[1,3,5,7,9,11,13,15,-1,-1,17,19,21,23,25,-1,27,29,-1,31,33,35,37,39,41,43,45,-1,-1,-1,-1,47,49,51,53,55,57,59,61,63,65,67,-1,69,71,73,75,-1,-1,-1,-1,-1,-1,-1,-1,-1,-1,-1,-1,-1,-1,-1,-1,-1,-1,-1,-1,-1,-1,-1,-1,-1,-1,-1,-1,-1,-1],"loss_changes":[4.6552734E0,1.3966274E0,5.171814E0,3.2547746E0,6.790943E-1,3.494995E0,3.0838013E0,2.0228128E0,0E0,0E0,1.1318107E0,3.7248688E0,2.5014343E0,3.540863E0,3.5249424E0,0E0,1.6728021E0,8.7662554E-1,0E0,5.778084E-1,3.2918262E0,2.6464844E0,4.143158E0,3.4403381E0,2.210598E0,2.8241863E0,1.6876612E0,0E0,0E0,0E0,0E0,6.884327E-1,1.4702988E0,1.6708539E0,1.3797302E0,4.1035843E0,3.776245E0,5.668602E0,2.554535E0,4.15242E0,6.955925E0,2.471611E0,0E0,4.4563384E0,2.7978659E0,6.711931E-1,1.0342271E0,0E0,0E0,0E0,0E0,0E0,0E0,0E0,0E0,0E0,0E0,0E0,0E0,0E0,0E0,0E0,0E0,0E0,0E0,0E0,0E0,0E0,0E0,0E0,0E0,0E0,0E0,0E0,0E0,0E0,0E0],"parents":[2147483647,0,0,1,1,2,2,3,3,4,4,5,5,6,6,7,7,10,10,11,11,12,12,13,13,14,14,16,16,17,17,19,19,20,20,21,21,22,22,23,23,24,24,25,25,26,26,31,31,32,32,33,33,34,34,35,35,36,36,37,37,38,38,39,39,40,40,41,41,43,43,44,44,45,45,46,46],"right_children":[2,4,6,8,10,12,14,16,-1,-1,18,20,22,24,26,-1,28,30,-1,32,34,36,38,40,42,44,46,-1,-1,-1,-1,48,50,52,54,56,58,60,62,64,66,68,-1,70,72,74,76,-1,-1,-1,-1,-1,-1,-1,-1,-1,-1,-1,-1,-1,-1,-1,-1,-1,-1,-1,-1,-1,-1,-1,-1,-1,-1,-1,-1,-1,-1],"split_conditions":[-1.7430857E0,-6.567572E-1,-5.2264137E-3,-6.676955E-1,5.657242E-1,-5.803658E-1,7.961491E-1,-5.799183E-1,-1.437512E-1,3.0826825E-1,-9.6491414E-1,-1.0477898E0,-2.8688526E-1,1.5370659E0,1.5279065E0,3.3554837E-1,7.086223E-1,-4.6478888E-1,2.501599E-1,-1.3373443E-1,-6.567572E-1,-5.262782E-1,-5.400441E-1,1.3256197E0,1.7027189E0,4.486803E-1,-2.0515864E-1,-1.4119792E-1,1.9114508E-1,-1.3259934E-1,1.2665252E-1,-7.4374616E-1,-7.313287E-1,9.1037023E-1,1.2189288E-1,-5.401606E-1,-6.567572E-1,2.1440655E-1,-6.526085E-1,-5.5132276E-1,-1.4225668E0,3.2373053E-1,3.4500375E-1,3.735801E-1,8.2100624E-1,-1.1799501E0,-4.373854E-1,3.3682173E-1,7.686788E-2,-7.0764334E-3,2.2192729E-1,-2.4040453E-2,1.8938754E-1,1.3263951E-1,2.7115536E-1,8.144663E-2,1.5575823E-1,1.908224E-1,1.3370463E-1,7.6401025E-2,1.4989504E-1,4.2433124E-2,1.0730759E-1,1.8445085E-1,1.3563219E-1,-7.369408E-2,2.165438E-1,1.2662026E-1,3.1142611E-2,1.1923735E-1,-4.334964E-3,-6.8858355E-2,1.69454E-1,7.123686E-2,2.5775766E-1,1.4615415E-1,-1.3066083E-1],"split_indices":[1,5,5,5,0,3,4,3,0,0,2,0,4,3,4,0,0,5,0,4,5,3,3,5,2,3,0,0,0,0,0,1,5,2,1,5,5,4,5,4,4,2,0,5,4,0,3,0,0,0,0,0,0,0,0,0,0,0,0,0,0,0,0,0,0,0,0,0,0,0,0,0,0,0,0,0,0],"split_type":[0,0,0,0,0,0,0,0,0,0,0,0,0,0,0,0,0,0,0,0,0,0,0,0,0,0,0,0,0,0,0,0,0,0,0,0,0,0,0,0,0,0,0,0,0,0,0,0,0,0,0,0,0,0,0,0,0,0,0,0,0,0,0,0,0,0,0,0,0,0,0,0,0,0,0,0,0],"sum_hessian":[4.2599834E3,3.5521862E1,4.224462E3,9.903499E0,2.5618364E1,2.9316917E3,1.29277E3,7.6030407E0,2.300458E0,2.0286669E1,5.3316965E0,1.12247765E2,2.8194438E3,1.1090758E3,1.8369412E2,4.1246376E0,3.4784029E0,2.6965547E0,2.6351418E0,5.2015175E1,6.023259E1,1.1278792E3,1.6915648E3,8.877286E2,2.213473E2,1.5770384E2,2.5990269E1,1.7509599E0,1.727443E0,1.3608425E0,1.3357122E0,1.2683771E1,3.93314E1,1.8985577E1,4.1247013E1,2.9690244E2,8.3097675E2,6.0541736E2,1.0861475E3,7.230109E2,1.647176E2,2.1827432E2,3.0729797E0,1.0484094E2,5.28629E1,2.310312E1,2.8871484E0,1.0933425E1,1.750346E0,2.6391876E0,3.6692215E1,1.5869812E1,3.1157646E0,3.1755121E1,9.491893E0,1.8977786E2,1.0712458E2,1.3003639E2,7.0094037E2,1.2156822E2,4.8384915E2,5.9553368E1,1.026594E3,2.586445E2,4.6436646E2,7.335987E0,1.573816E2,1.8939612E2,2.88782E1,5.687901E1,4.7961937E1,4.336637E0,4.8526264E1,2.91154E0,2.019158E1,1.2594066E0,1.627742E0],"tree_param":{"num_deleted":"0","num_feature":"6","num_nodes":"77","size_leaf_vector":"1"}},{"base_weights":[-3.3409768E-1,-3.0054405E-1,-3.648954E-1,-4.3377545E-1,-2.6991367E-1,-3.384746E-1,-4.5222515E-1,-4.5688343E-1,-1.2058098E-1,-3.6270207E-1,-2.4867678E-1,-3.4351406E-1,4.3406554E-2,-4.605484E-1,7.0816465E-2,-4.643198E-1,-7.873034E-2,3.9019397E-1,-2.4431431E-1,-3.8790864E-1,1.2076782E-1,-3.2104084E-1,-2.1922891E-1,-3.9902857E-1,-3.179626E-1,5.1796806E-1,-1.5230146E-1,-5.195123E-1,-3.6317566E-1,1.6467983E-1,-1.2402975E-1,-3.7288108E-1,-5.0621206E-1,1.6558415E-1,-1.09273344E-1,-9.172219E-2,2.4989808E-1,1.3054207E-1,-4.0724134E-1,8.05727E-2,-4.0592527E-1,-2.1884383E-1,2.4969377E-1,-3.3221826E-1,4.6304193E-1,-2.1149802E-1,-1.6151801E-1,-3.483844E-1,-4.6273533E-1,-3.331565E-1,-3.0566176E-2,2.7229503E-1,-9.0894185E-2,-3.0206338E-1,1.3782124E-1,-9.604791E-2,-5.2453184E-1,-4.2458317E-1,-2.2586235E-1,-2.7478084E-2,-1.3633355E-1,-1.6387518E-1,-1.220637E-1,-9.962926E-2,1.9192512E-1,-1.0806733E-1,1.5893908E-1,5.0903898E-2,-1.50811E-1,-8.592715E-2,2.5040582E-1,-1.3432407E-1,-8.014836E-2,9.329767E-3,-1.2838124E-1,-1.1042867E-1,-2.1327887E-2,2.794518E-1,-9.075101E-2,-6.691932E-2,2.5922043E-2,-1.1345584E-1,2.469399E-2,-3.947267E-2,-1.4057888E-1,-3.9328605E-2,-1.035245E-1,9.707817E-2,-7.8657836E-2,1.144752E-2,-1.4522158E-1,-9.260751E-2,4.7688253E-2,-1.5882918E-1,-5.65116E-2,-8.477982E-2,-1.4839004E-1,-8.065159E-2,1.613174E-1],"categories":[],"categories_nodes":[],"categories_segments":[],"categories_sizes":[],"default_left":[0,0,0,0,0,0,0,0,0,0,0,0,0,0,0,0,0,0,0,0,0,0,0,0,0,0,0,0,0,0,0,0,0,0,0,0,0,0,0,0,0,0,0,0,0,0,0,0,0,0,0,0,0,0,0,0,0,0,0,0,0,0,0,0,0,0,0,0,0,0,0,0,0,0,0,0,0,0,0,0,0,0,0,0,0,0,0,0,0,0,0,0,0,0,0,0,0,0,0],"id":15,"left_children":[1,3,5,7,9,11,13,15,17,19,21,23,25,27,29,31,33,35,37,39,41,43,45,47,49,51,53,55,57,-1,-1,59,61,63,-1,-1,-1,65,67,69,71,73,-1,75,77,79,-1,81,83,85,87,-1,-1,89,-1,91,93,95,97,-1,-1,-1,-1,-1,-1,-1,-1,-1,-1,-1,-1,-1,-1,-1,-1,-1,-1,-1,-1,-1,-1,-1,-1,-1,-1,-1,-1,-1,-1,-1,-1,-1,-1,-1,-1,-1,-1,-1,-1],"loss_changes":[2.2781372E0,4.419075E0,2.6161041E0,1.4367447E0,1.6959305E0,1.7957764E0,1.2332306E0,5.0226593E-1,1.0763369E0,2.0775833E0,1.508194E0,1.1688156E0,1.2807369E0,1.3707047E0,1.4277916E0,5.302849E-1,4.020801E-1,1.306119E0,8.538636E-1,1.3715E0,2.3618124E0,2.0127544E0,1.1930523E0,7.55043E-1,2.7427864E0,1.5564362E0,1.0488995E0,3.0426025E-1,7.958746E-1,0E0,0E0,1.3986177E0,2.786026E-1,9.977497E-1,0E0,0E0,0E0,1.1174812E0,6.019553E-1,2.0956933E0,7.677593E-1,3.7378582E-1,0E0,1.9384842E0,1.5007465E0,1.80686E0,0E0,2.1138306E0,1.7654419E-1,1.397377E0,2.7720535E0,0E0,0E0,5.500326E-1,0E0,2.2143508E-1,1.7142105E-1,5.757494E-1,1.2871445E0,0E0,0E0,0E0,0E0,0E0,0E0,0E0,0E0,0E0,0E0,0E0,0E0,0E0,0E0,0E0,0E0,0E0,0E0,0E0,0E0,0E0,0E0,0E0,0E0,0E0,0E0,0E0,0E0,0E0,0E0,0E0,0E0,0E0,0E0,0E0,0E0,0E0,0E0,0E0,0E0],"parents":[2147483647,0,0,1,1,2,2,3,3,4,4,5,5,6,6,7,7,8,8,9,9,10,10,11,11,12,12,13,13,14,14,15,15,16,16,17,17,18,18,19,19,20,20,21,21,22,22,23,23,24,24,25,25,26,26,27,27,28,28,31,31,32,32,33,33,37,37,38,38,39,39,40,40,41,41,43,43,44,44,45,45,47,47,48,48,49,49,50,50,53,53,55,55,56,56,57,57,58,58],"right_children":[2,4,6,8,10,12,14,16,18,20,22,24,26,28,30,32,34,36,38,40,42,44,46,48,50,52,54,56,58,-1,-1,60,62,64,-1,-1,-1,66,68,70,72,74,-1,76,78,80,-1,82,84,86,88,-1,-1,90,-1,92,94,96,98,-1,-1,-1,-1,-1,-1,-1,-1,-1,-1,-1,-1,-1,-1,-1,-1,-1,-1,-1,-1,-1,-1,-1,-1,-1,-1,-1,-1,-1,-1,-1,-1,-1,-1,-1,-1,-1,-1,-1,-1],"split_conditions":[-6.551274E-2,-1.169986E0,3.148118E-1,1.0251955E0,-5.461403E-1,1.48193E0,1.745142E0,-1.13510735E-1,4.7851002E-1,1.2969786E0,-1.3324316E-2,-9.474501E-1,1.7193847E0,7.803214E-1,1.7950233E0,-6.064463E-1,-4.2720142E-1,-5.6674594E-1,-6.526085E-1,-1.6349969E0,-1.9153994E-1,1.8867315E0,1.9159887E0,-1.3229526E0,1.6743778E0,-4.0327632E-1,-5.038332E-1,-1.7387882E0,-2.712356E-1,1.6467983E-1,-1.2402975E-1,-1.4628835E-1,-4.8995173E-1,-5.72494E-1,-1.09273344E-1,-9.172219E-2,2.4989808E-1,-1.574933E0,1.0588763E0,-4.970092E-1,1.4924939E0,-6.4174896E-1,2.4969377E-1,2.221043E0,7.2128946E-1,1.7380074E0,-1.6151801E-1,6.0795322E-2,-1.4045407E0,-6.917627E-1,-4.0327632E-1,2.7229503E-1,-9.0894185E-2,-1.6821965E0,1.3782124E-1,5.5070764E-1,5.8255734E0,2.8255254E-1,5.8255734E0,-2.7478084E-2,-1.3633355E-1,-1.6387518E-1,-1.220637E-1,-9.962926E-2,1.9192512E-1,-1.0806733E-1,1.5893908E-1,5.0903898E-2,-1.50811E-1,-8.592715E-2,2.5040582E-1,-1.3432407E-1,-8.014836E-2,9.329767E-3,-1.2838124E-1,-1.1042867E-1,-2.1327887E-2,2.794518E-1,-9.075101E-2,-6.691932E-2,2.5922043E-2,-1.1345584E-1,2.469399E-2,-3.947267E-2,-1.4057888E-1,-3.9328605E-2,-1.035245E-1,9.707817E-2,-7.8657836E-2,1.144752E-2,-1.4522158E-1,-9.260751E-2,4.7688253E-2,-1.5882918E-1,-5.65116E-2,-8.477982E-2,-1.4839004E-1,-8.065159E-2,1.613174E-1],"split_indices":[0,1,5,2,3,3,0,0,4,1,4,4,3,1,0,5,5,3,5,2,0,2,4,4,1,2,2,2,4,0,0,4,3,3,0,0,0,0,2,4,4,5,0,3,1,4,0,5,2,2,2,0,0,2,0,3,3,0,3,0,0,0,0,0,0,0,0,0,0,0,0,0,0,0,0,0,0,0,0,0,0,0,0,0,0,0,0,0,0,0,0,0,0,0,0,0,0,0,0],"split_type":[0,0,0,0,0,0,0,0,0,0,0,0,0,0,0,0,0,0,0,0,0,0,0,0,0,0,0,0,0,0,0,0,0,0,0,0,0,0,0,0,0,0,0,0,0,0,0,0,0,0,0,0,0,0,0,0,0,0,0,0,0,0,0,0,0,0,0,0,0,0,0,0,0,0,0,0,0,0,0,0,0,0,0,0,0,0,0,0,0,0,0,0,0,0,0,0,0,0,0],"sum_hessian":[2.309713E3,1.110548E3,1.1991649E3,2.051324E2,9.054156E2,9.243784E2,2.747865E2,1.906101E2,1.452229E1,1.6563661E2,7.39779E2,9.12438E2,1.194044E1,2.7059985E2,4.1866236E0,1.8671059E2,3.8995173E0,2.411995E0,1.2110295E1,1.5761665E2,8.019971E0,2.1110806E2,5.286709E2,2.8298743E2,6.2945056E2,3.0056267E0,8.9348135E0,1.6584029E2,1.0475958E2,2.039438E0,2.1471853E0,6.177488E1,1.2493571E2,2.3277287E0,1.5717885E0,1.058271E0,1.3537238E0,3.7291584E0,8.381137E0,5.7084823E0,1.5190817E2,5.8975706E0,2.1224003E0,2.0870912E2,2.3989391E0,5.177915E2,1.0879422E1,1.612606E2,1.2172681E2,5.976928E2,3.1757704E1,1.9665483E0,1.0390782E0,7.584194E0,1.350619E0,2.178643E0,1.6366164E2,7.094182E1,3.3817764E1,1.4363365E1,4.7411514E1,8.583767E1,3.9098045E1,1.2818868E0,1.0458419E0,1.7167171E0,2.0124414E0,1.0795368E0,7.3016005E0,4.256971E0,1.4515114E0,1.1501696E2,3.689121E1,3.0741305E0,2.8234398E0,1.8313733E2,2.5571795E1,1.3537467E0,1.0451924E0,4.986811E2,1.911039E1,1.5093849E2,1.0322111E1,2.5246804E0,1.1920213E2,3.3977028E1,5.637158E2,1.2400353E1,1.935735E1,2.9187086E0,4.665486E0,1.0732114E0,1.1054317E0,1.6074426E2,2.9173813E0,2.5100428E1,4.5841393E1,3.262925E1,1.1885155E0],"tree_param":{"num_deleted":"0","num_feature":"6","num_nodes":"99","size_leaf_vector":"1"}},{"base_weights":[-3.0507803E-1,-3.588492E-1,-2.710485E-1,-2.581037E-1,-4.0189147E-1,-2.3688674E-1,-3.2542926E-1,-1.5323316E-1,-3.2571518E-1,-4.499464E-1,-3.5222074E-1,-3.7824327E-1,-2.1652701E-1,-2.3955058E-1,-3.5801825E-1,-5.828954E-3,-3.0866712E-1,-1.5357424E-1,-3.9868504E-1,-4.6251288E-1,-2.2646955E-1,-3.000038E-1,-4.177587E-1,-9.005766E-2,-4.1997066E-1,5.4848637E-2,-2.2776134E-1,-2.6264885E-1,4.6436447E-1,-4.049325E-1,-2.3282705E-1,6.605237E-2,-4.058111E-1,-2.0278408E-1,-4.9121976E-1,-1.9600083E-1,5.742686E-1,-4.4028422E-1,-2.1029833E-1,-4.6520352E-1,1.3330412E-2,1.9602041E-1,-3.1690997E-1,-3.4935832E-1,-1.4813744E-1,-4.5034525E-1,-2.1737018E-1,-4.0347618E-1,3.1363183E-1,-1.1042386E-1,-4.6648318E-1,-1.6698759E-2,5.8833325E-1,-1.9976194E-1,-3.7928537E-1,-1.0320783E-1,-3.5589242E-1,3.743527E-1,-1.2031048E-1,-3.5517377E-1,-4.6508998E-1,-3.6046636E-1,-1.3369435E-1,-1.3019116E-2,9.599035E-2,-1.4947562E-1,7.888932E-3,-8.005281E-2,1.5755847E-1,5.1061574E-2,-1.626426E-1,-1.1740964E-1,-3.447818E-4,5.515097E-2,2.0574601E-1,-1.5514235E-1,-8.182114E-2,5.6267418E-2,-9.8159045E-2,-1.4162269E-1,-6.48681E-2,-2.4882054E-2,-1.5369469E-1,7.086358E-2,-1.0821625E-1,-6.4177096E-2,1.9908819E-1,-1.3912113E-1,5.37498E-4,-1.1285076E-1,1.6687538E-1,2.3370428E-2,-1.4936915E-1,-1.0768539E-1,1.6758682E-1,-8.15543E-2,1.4161219E-1,-8.5918335E-3,-1.4878437E-1,-2.5845625E-2,1.9263805E-1,2.4367352E-1,2.4767973E-2,-6.4157315E-2,2.3869146E-3,-3.2026134E-2,-1.2571914E-1,-1.2354391E-1,2.3007458E-2,-1.3993411E-1,-5.651543E-2,-1.4276634E-1,-8.7780684E-2,-1.42902E-1,-5.1978264E-2,-6.876548E-2,-1.633878E-1,-1.5951917E-1,-9.199264E-3],"categories":[],"categories_nodes":[],"categories_segments":[],"categories_sizes":[],"default_left":[0,0,0,0,0,0,0,0,0,0,0,0,0,0,0,0,0,0,0,0,0,0,0,0,0,0,0,0,0,0,0,0,0,0,0,0,0,0,0,0,0,0,0,0,0,0,0,0,0,0,0,0,0,0,0,0,0,0,0,0,0,0,0,0,0,0,0,0,0,0,0,0,0,0,0,0,0,0,0,0,0,0,0,0,0,0,0,0,0,0,0,0,0,0,0,0,0,0,0,0,0,0,0,0,0,0,0,0,0,0,0,0,0,0,0,0,0,0,0],"id":16,